<?xml version="1.0"?>
<opencv_storage>
<opencv_ml_ann_mlp>
  <format>3</format>
  <layer_sizes>
    159 79 26 6 1</layer_sizes>
  <activation_function>SIGMOID_SYM</activation_function>
  <f_param1>1.</f_param1>
  <f_param2>1.</f_param2>
  <min_val>-9.4999999999999996e-01</min_val>
  <max_val>9.4999999999999996e-01</max_val>
  <min_val1>-9.7999999999999998e-01</min_val1>
  <max_val1>9.7999999999999998e-01</max_val1>
  <training_params>
    <train_method>BACKPROP</train_method>
    <dw_scale>1.0000000000000001e-01</dw_scale>
    <moment_scale>1.0000000000000001e-01</moment_scale>
    <term_criteria>
      <epsilon>1.0000000000000000e-02</epsilon>
      <iterations>5000</iterations></term_criteria></training_params>
  <input_scale>
    6.4690705856401379e+01 -2.4306326637308833e+00
    6.5665894622412509e+01 -2.7794624549458078e+00
    7.0589644495412585e+01 -2.9610313349852060e+00
    5.4477579740159875e+01 -2.2535154779373725e+00
    4.9716374030187140e+01 -2.2817460784695109e+00
    5.3915438580966743e+01 -2.4429293657796105e+00
    7.5687770743173928e+01 -2.8199901817292679e+00
    7.7991423642654013e+01 -3.1086387494362211e+00
    8.4197888394822485e+01 -3.3809351633017450e+00
    6.6518569654502997e+01 -2.7511308176973568e+00
    6.0201156024824805e+01 -2.6641109155899145e+00
    6.6286067837216734e+01 -2.9216081441280051e+00
    9.8531123196686337e+01 -3.6608509781403811e+00
    1.0757168806039768e+02 -3.9561502615847774e+00
    1.1365772673206733e+02 -4.3053390064344539e+00
    9.0874335318065121e+01 -3.7011097368107668e+00
    7.8975693066101584e+01 -3.1995276608539296e+00
    8.8675278161914051e+01 -3.6450858180167227e+00
    1.3419942876203555e+02 -5.2424796324631266e+00
    1.4595712081802375e+02 -5.4335884027374854e+00
    1.5370246959305598e+02 -5.9184377158367436e+00
    1.2559245282170302e+02 -5.1651664507470878e+00
    1.0016003446763177e+02 -3.8547677199117345e+00
    1.1478094308204813e+02 -4.5437690529647172e+00
    1.6237411184548145e+02 -6.9738671221810140e+00
    1.7505777353253950e+02 -7.2947732253207480e+00
    1.8362518512700748e+02 -7.7971053591098327e+00
    1.8523808366278462e+02 -8.0398077263853622e+00
    1.4437567766931804e+02 -5.9553859181215119e+00
    1.5992605427955920e+02 -6.7065868666359645e+00
    1.6284814792722224e+02 -7.2999901712753328e+00
    1.7881360581745454e+02 -7.9328030992963425e+00
    1.8402785982962536e+02 -8.2133047080439106e+00
    2.2821883739141740e+02 -1.0167194025722873e+01
    2.1467026626071967e+02 -9.4376826410253241e+00
    2.2193826218899198e+02 -9.7614419399865699e+00
    1.5915455615078619e+02 -7.1521419175440331e+00
    1.7004781258871856e+02 -7.6180003149483086e+00
    1.7645622271601295e+02 -7.9075813439085882e+00
    2.1883378950749270e+02 -9.6923848403364463e+00
    1.9734020629929199e+02 -8.8059920423984437e+00
    2.2299611832449591e+02 -9.8793494354620162e+00
    1.4569632442145326e+02 -6.4151177803556489e+00
    1.5131151669065343e+02 -6.6482971141987726e+00
    1.5716395519981390e+02 -6.8950665628868109e+00
    1.8708667698306516e+02 -8.0034040306222085e+00
    1.5823221575919530e+02 -6.8456174042358242e+00
    1.8290638691294882e+02 -7.8564548567930723e+00
    1.3379437295031701e+02 -5.6778177126797482e+00
    1.3688060036517592e+02 -5.7914562574519888e+00
    1.3936022159322866e+02 -5.8923185322979714e+00
    1.5224184823982634e+02 -6.4092488520647075e+00
    1.3819982531919615e+02 -5.8651355746518297e+00
    1.5114979298043008e+02 -6.3812057581208261e+00
    1.1351182568272311e+02 -4.9018369860647990e+00
    1.2129307012276475e+02 -5.2231142339899970e+00
    1.2083605440406643e+02 -5.2026721128394895e+00
    1.4588569176679562e+02 -6.1995592335759060e+00
    1.3806141787196941e+02 -5.9009828751589986e+00
    1.4704083694761775e+02 -6.2541293686861952e+00
    1.0351651487666011e+02 -4.5875868332014704e+00
    1.1672904336535333e+02 -5.1464424537228384e+00
    1.1393046333823587e+02 -5.0186709049729039e+00
    1.3601988448322922e+02 -5.8484321524324763e+00
    1.3473070684692041e+02 -5.8015353526957130e+00
    1.3986548688257139e+02 -6.0002008963905187e+00
    1.0498492255287078e+02 -4.6861970641044328e+00
    1.2518818062110174e+02 -5.5262579102441576e+00
    1.1983699154413495e+02 -5.2873182884961993e+00
    1.1540603304901552e+02 -5.0337225545304314e+00
    1.1888245074514268e+02 -5.1595882844673309e+00
    1.2107266768910637e+02 -5.2496494445685205e+00
    1.2613763061776748e+02 -5.4862385212496925e+00
    1.5681755764973823e+02 -6.6740780504633710e+00
    1.4324109460102605e+02 -6.1022168328995399e+00
    1.0714404458102194e+02 -4.6948988089564718e+00
    1.1111723839256584e+02 -4.8344983124686900e+00
    1.1199493080763253e+02 -4.8748163850932675e+00
    1.4384010905307483e+02 -6.2036252969407570e+00
    1.6917966301774229e+02 -7.1221388475483245e+00
    1.5530420421834967e+02 -6.5434388610732483e+00
    1.1853065337283189e+02 -5.1104860322772252e+00
    1.1774560023192311e+02 -5.0580750115682935e+00
    1.2153114939134234e+02 -5.2135186822930653e+00
    1.6087431717564843e+02 -6.8619986599629739e+00
    1.7528921295004167e+02 -7.3667187880901350e+00
    1.6787318694630426e+02 -7.0371982564867768e+00
    1.3325141622529196e+02 -5.6396141555315449e+00
    1.2344357342205464e+02 -5.2259922645780446e+00
    1.3141089969168237e+02 -5.5351640765446408e+00
    1.6982887570996786e+02 -7.3132193568396175e+00
    1.6381286340419092e+02 -7.0618487563817860e+00
    1.7649972470943453e+02 -7.5511095020842651e+00
    1.5040883277379592e+02 -6.3200401999587399e+00
    1.3061564088789564e+02 -5.5147374667338660e+00
    1.4265560623758643e+02 -5.9818569790938305e+00
    1.8723521134391692e+02 -8.1283354625128315e+00
    1.5851804819635143e+02 -6.9439635231887147e+00
    1.8761080650643777e+02 -8.1243302428267512e+00
    1.8974340337524399e+02 -7.9224541150769188e+00
    1.5042094254454469e+02 -6.3433357641436414e+00
    1.7284080079379447e+02 -7.2218893096108836e+00
    1.9768528788947526e+02 -8.7040785964496159e+00
    1.7772951063272288e+02 -7.8677225942257731e+00
    2.0751765823244779e+02 -9.0769242122490628e+00
    2.1878771387211887e+02 -9.3265181435900981e+00
    1.7983399673084344e+02 -7.7589509781263386e+00
    2.1369640963299844e+02 -9.1213634698688946e+00
    2.1436525519999719e+02 -9.4432036948967646e+00
    2.2819829358738511e+02 -9.9956301291689371e+00
    2.2967763404490586e+02 -9.9648384109419865e+00
    2.2193329309677540e+02 -9.3489653390208609e+00
    2.2314555922141940e+02 -9.4022764914080668e+00
    2.3902725270317819e+02 -1.0006795316075502e+01
    2.2774500974333489e+02 -9.7595529354210093e+00
    2.2578006475114290e+02 -9.4067543484473664e+00
    2.2561112594072407e+02 -9.3767394352816265e+00
    1.9571453760054141e+02 -7.7970450276617980e+00
    2.0165472956353580e+02 -7.7613860521367473e+00
    2.1371520732396763e+02 -8.2990556343551276e+00
    1.8540536822338086e+02 -7.3891737209145854e+00
    1.5565521359785663e+02 -5.8490035916221812e+00
    1.7866716433849780e+02 -6.7736984851690796e+00
    1.6311082759165888e+02 -6.0637352468911105e+00
    1.4864257916407988e+02 -5.1021742834612276e+00
    1.7239796558943846e+02 -6.0844507039113260e+00
    1.1403321770869178e+02 -4.2492332903421275e+00
    1.0841865655697335e+02 -3.8675146349369194e+00
    1.2064080041595814e+02 -4.3303480145499753e+00
    1.2184856380068420e+02 -4.5642127332261158e+00
    1.0522753721539583e+02 -3.7090589013249828e+00
    1.2104318911075501e+02 -4.3620962458075310e+00
    7.3552575128809195e+01 -2.7283213464211156e+00
    7.4844130314656113e+01 -2.8714636196099677e+00
    7.8504198546200499e+01 -2.9668326229200148e+00
    9.3102744738412781e+01 -3.6364616064642319e+00
    8.5792971489535432e+01 -3.3794725917253672e+00
    9.5507363430425144e+01 -3.7561112166353028e+00
    6.1240400289785072e+01 -2.2494811432433535e+00
    6.4818151075955697e+01 -2.6243086866830856e+00
    6.6589702747560708e+01 -2.6102456021133396e+00
    8.3950399225635593e+01 -3.1795899510044543e+00
    8.1333779610966758e+01 -3.2684301526879609e+00
    8.9275699140338617e+01 -3.5205842659135209e+00
    2.4818215813883359e+01 -8.7839170899936629e+00
    2.8160828591806098e+01 -9.0878323799133280e+00
    4.7689690759407519e+01 -1.5420839919865440e+01
    2.0678477476911340e+01 -7.2888086718087290e+00
    2.4584501942567488e+01 -7.9271224364361847e+00
    4.3714861943431700e+01 -1.4210532704600270e+01
    2.3325395085321055e+01 -8.2087257770316988e+00
    2.6788299122688720e+01 -8.6490659939363059e+00
    4.8000883331826529e+01 -1.5610388009441658e+01
    2.4437338554898702e+01 -8.6163475671383019e+00
    2.8475968810721255e+01 -9.2338177637558356e+00
    4.4490479279636119e+01 -1.4376810540173066e+01
    2.6154711233851586e+01 -9.3946389085598465e+00
    2.8862514601280939e+01 -9.2625796544948251e+00
    4.5924556143599176e+01 -1.4690547038476225e+01</input_scale>
  <output_scale>
    1.0526315789473684e+00 0.</output_scale>
  <inv_output_scale>
    9.4999999999999996e-01 0.</inv_output_scale>
  <weights>
    <_>
      -4.4242967099552472e-02 2.1691827474309572e-01
      1.1551305321380731e-01 2.8491358818968911e-02
      -3.3528036774974256e-02 -2.5973352095572461e-01
      1.6718962496433981e-01 -4.9771541273331825e-02
      -1.4892706907893760e-01 3.4023278341483704e-01
      -1.0847683677781376e-01 6.6741917277587892e-01
      9.9615630106874381e-02 -3.8283964912807206e-01
      -2.2357209031875795e-03 -1.3885656664250504e-01
      -1.4868487050623558e-01 -1.8930977458766232e-01
      -2.8750010340476911e-01 -1.2223577040796854e-01
      -4.5356437091417823e-01 -4.3781408537432946e-02
      8.4860971044377884e-02 -1.7443264705518566e-01
      -4.0933011747749770e-01 -2.3845076982708763e-01
      -2.1180965770390733e-01 -2.5245745222048144e-01
      5.1580512597845130e-02 4.9310717528266886e-02
      -2.2358743801059902e-01 -2.6049221224037494e-01
      -2.4049521871793194e-02 -6.0628779657105537e-02
      3.2771767221288217e-01 -2.7218187059700932e-01
      1.8512082107303493e-01 1.9765805719450832e-01
      2.5047344677681554e-01 2.9376437046592779e-01
      1.3827496238881876e-01 3.4469238218635873e-02
      5.4755660080990275e-02 -6.3865883019916247e-02
      -1.5416331753366219e-01 -6.3992717789967971e-02
      -2.0817150791225372e-01 8.7356741719459313e-02
      -7.2868416601365338e-02 1.8726452257171042e-01
      -1.8242109336766410e-01 4.1632585146778048e-02
      -1.0883120912643882e-01 2.0546098778480010e-01
      -1.1361775879433688e-02 2.1147127184567929e-02
      4.1042848897683726e-02 2.4702046739586378e-01
      -1.6740720085240843e-01 3.1066309899936390e-01
      -9.3749978042827559e-02 -1.0497686012471484e-01
      1.9906192486135418e-01 -4.1695117354461725e-01
      7.8807919282335459e-01 3.9261102126336656e-01
      5.3295364798305678e-01 -3.2435018286079392e-01
      -2.9854350531302082e-01 -2.4738660604172014e-02
      -4.9607599670065533e-02 -8.2591717898845493e-02
      2.9979675198653083e-01 -4.2466844373177798e-01
      1.9117321493891301e-01 8.8498072536207742e-02
      3.7942288070363490e-02 -6.8355278334987252e-02
      1.9614849553164498e-01 7.8604023283635999e-02
      -8.8996692615360598e-02 6.5933736851517255e-01
      -8.1899737281452598e-02 -2.6644488750680706e-02
      1.9330430796911299e-01 -1.2724903797977963e-01
      -1.5971360021987176e-04 1.5956252524462347e-01
      -1.1330384855421176e-01 9.6837381341853990e-02
      -1.5759790917329769e-01 -6.0400269735151287e-02
      -1.2623886305406035e-01 1.8116461764583228e-01
      1.4213018816575981e-01 2.1274183206939933e-02
      1.2555232597727975e-01 2.0371532084869248e-01
      1.7145055881089835e-01 2.7952606044303346e-01
      4.4981599965304923e-02 -1.7681846314391544e-01
      1.0113318392306489e-01 -1.5412745541860212e-01
      2.4199218921445795e-01 2.0828772646442661e-01
      2.2263342486265170e-01 2.4566998483123600e-02
      -1.0011226213201616e-01 1.5943814817442950e-01
      1.2512172053364695e-01 -3.8158760267820800e-02
      -3.7006339623730955e-02 -1.8416831626376554e-01
      2.0507320983839813e-01 -2.3257788274606087e-01
      -1.1986867191168055e-01 -2.2115856372915976e-01
      -1.0183725378164235e-01 -1.7802332867487217e-01
      -5.5497040666150535e-02 1.0566349959476399e-02
      -4.7175175611219214e-02 1.1236165004011886e-01
      -3.9891927725628523e-02 9.1392464268760520e-02
      1.1778658343695429e-02 7.2004606963095488e-03
      -2.6319544939652662e-02 1.1244874384760434e-01
      4.3966801808459438e-02 1.6613608002801059e-01
      -1.8618978328529256e-01 -3.2490321575411575e-02
      3.8439920287985922e-02 1.9059171459946758e-02
      -2.0078751993196503e-01 6.5679245055130606e-02
      -7.3165142932479069e-02 6.5272720723706282e-02
      4.6145760073513359e-01 -6.3653632178281253e-02
      1.1118583242680338e-01 -1.0956295916524310e-01
      -2.2874591360149105e-01 -1.9495407865858225e-01
      2.7821068500855101e-02 1.9086249077715395e-01
      -4.5857316840925956e-02 -3.7468848056655665e-02
      7.1039017978170957e-02 -1.8826414165375668e-01
      1.2403269495115862e-01 -7.1014572643495449e-02
      -1.2197984857237698e-03 -6.5016785862495097e-01
      -2.2757157666306347e-02 -7.5096153966118920e-02
      -1.7803120466373685e-02 1.1229857385954592e-01
      5.2653239628780130e-02 2.5286139829584772e-02
      -4.2058854505912055e-02 1.5339638989591778e-01
      -4.0084172573077427e-02 1.6802260235150038e-01
      7.8221521053193535e-02 1.8060828952159816e-01
      -5.2896633232238144e-02 -1.3819118485518778e-01
      4.2021233530553835e-02 -3.0487136949407473e-01
      4.8770231195652089e-02 -2.4151140928485637e-01
      -3.7141733737601705e-02 8.7481220974580845e-02
      1.2500875160038871e-01 2.6640879659164288e-02
      2.8976228809769183e-01 -3.5710419599372781e-02
      2.3759594815523977e-02 6.3821280597313790e-02
      -4.0344670261817778e-01 1.1906005458402817e-01
      1.2386008542857442e-01 1.2984357737015206e-01
      6.3351930995659944e-02 -3.5389131878127721e-02
      -7.9364325399049127e-03 -3.2250263778098847e-03
      -4.5028856937288843e-02 -7.0725974419143231e-02
      -1.4006269046532402e-01 1.5962079204395474e-01
      5.3408378162156794e-02 1.4215446925557800e-02
      -1.6436692574274206e-01 -8.7650397994001386e-02
      -2.8455808551739025e-02 1.8099568309405342e-02
      5.7463240203037863e-02 -7.0816136371292304e-02
      -8.3853692456469786e-02 -1.0459007777070721e-01
      -1.8906734300084157e-02 1.0423085159265012e-01
      -5.7241413760901985e-02 1.4437244414039802e-01
      -5.4722923272874533e-03 6.2300632495305930e-02
      -3.8176743064397028e-02 -8.6024331405069196e-02
      -9.8365506378476596e-03 4.1630668296016131e-02
      5.2022992006154956e-02 -1.3817708620972824e-01
      4.7444938594750061e-02 -3.0300149979728908e-01
      -4.1799982326688238e-02 2.7794395659018517e-01
      -5.5604671955479792e-03 8.9353231378791559e-02
      1.6059353571640692e-01 -8.4786302630989518e-02
      -1.8991175977536429e-02 -2.2062622345366723e-01
      1.5483905854710500e-01 -4.7529753240837101e-02
      -7.1173120986027419e-02 -6.5552500327935373e-02
      -6.3459875608099015e-02 1.0797195261316538e-01
      -2.5140228933071464e-02 8.4661677384794798e-02
      -3.9873083310315964e-03 -6.7816226144690725e-02
      1.6937360503586494e-02 -2.7302063653230346e-02
      2.7397490735089278e-02 -5.1231593572320622e-01
      2.4420883158566949e-02 -1.2590487367516813e-02
      -2.9482013996364803e-01 3.4037727200901380e-01
      9.1397294737063361e-01 -2.3604375232063071e-01
      1.1260248325741562e-01 -5.4024184176504800e-02
      4.1518644857351861e-01 2.0712277022175576e-01
      -2.8744040805746002e-01 -8.6952706996756424e-01
      -6.8104270950303214e-01 -1.3828492823281552e-01
      -1.3690529595749257e-01 -3.1818535037660761e-01
      -2.1485800192164156e-01 -4.4611901357484451e-01
      -1.1120883523260941e-02 -4.9252004111269787e-02
      -1.3262075505263435e-01 -2.3175661654644147e-01
      -2.9784674262499639e-01 -2.3205436853802078e-01
      -3.0178948380006315e-01 5.7802185060315037e-02
      1.1226223034815585e-02 -1.8210048707052112e-01
      -9.4635870173807729e-02 -1.2879108816852810e-02
      -7.6692803756760200e-02 2.9651094313571058e-01
      -2.4043894689307699e-01 -7.2654435801888892e-02
      2.1884841147798090e-01 2.5743522014881604e-01
      2.1492692569918737e-01 2.6799958915102429e-01
      -8.9725492104041332e-03 6.9801245771380346e-02
      -5.8880954559556324e-02 -1.5467749081206650e-02
      -9.4956059938532289e-02 -2.0347957187343155e-01
      1.2048190383558288e-01 -1.0677305835940887e-01
      9.2337763237620822e-03 -1.3656436017442408e-01
      6.1437596527829666e-02 5.1816628559122190e-02
      2.2084158234390119e-01 -1.0932913674110391e-02
      2.1773107621300362e-02 3.5969300855588762e-02
      2.8459460015571153e-01 -8.0081043538176175e-02
      1.5008531854010959e-01 -2.9987244405997454e-01
      -3.1794584503310980e-01 1.0256543344656910e-01
      -4.1344788592198223e-01 4.3341124740769027e-01
      1.4356007160189943e-01 3.4536362173422841e-01
      -5.4935740635767694e-01 -3.1625643178414570e-01
      -4.0274451131808433e-03 -6.4317205317567586e-02
      -1.3681789444303077e-02 3.4364448645315521e-01
      -4.1846280869706448e-01 1.7987526792632430e-01
      9.5949621977164570e-02 7.2645053232019940e-01
      -4.8695091534868964e-02 1.8183264145344949e-01
      7.2629916733563740e-02 -1.8972717159738586e-01
      -1.6278297777455117e-01 -8.8418089635430686e-02
      -5.1750192795542937e-02 3.2936717514548514e-01
      -1.1420533032218028e-01 2.0550207916102015e-01
      1.6815944508941894e-01 -2.3362258309073572e-01
      9.0651120655870318e-02 2.1218648032690521e-01
      -7.3461779831226967e-02 1.1866209553588032e-01
      -1.5704327618342515e-01 -9.8211856832197339e-02
      1.0440554095819961e-01 2.3583868433667660e-01
      3.2861639358888012e-01 8.2074971487081427e-02
      -1.3008351044360350e-01 8.0735355211696516e-02
      -1.8529179359036130e-01 2.3380837426287310e-01
      2.3291829390813518e-01 3.4296467156896721e-01
      2.7514536502461662e-01 3.2216397582721240e-01
      5.0255385428992751e-02 -1.0307576714159325e-01
      9.4538448803252448e-02 -2.0117159728076036e-02
      -6.5709616131612983e-02 -3.1498603807708650e-02
      -3.2870167576439840e-01 3.2419516627455691e-01
      -2.9788989803125754e-01 -1.7582533446148293e-01
      -3.5840002434060581e-01 -2.7064945123556189e-01
      -8.5854932619651214e-02 -7.7369331050294629e-02
      4.6518619191523898e-02 -4.4480905044970515e-02
      1.4772208474534695e-01 -4.4992970998498340e-02
      1.7554383919290734e-01 3.6462285241363216e-03
      3.0446417663533783e-02 -1.5556352839040855e-01
      2.3813689313268618e-01 5.0029755612729529e-02
      1.5976802082396777e-01 -2.6652280514665916e-01
      -7.5935952249318414e-02 6.8097135616439763e-02
      4.5101171186254167e-02 -3.0204083689979488e-01
      1.7311169607398866e-01 -1.1665691572480159e-01
      2.4882819630908874e-02 3.0953608161109381e-01
      -2.0409100124370685e-01 2.9786640378719886e-01
      -1.8330584468060199e-02 -1.4690132174671430e-02
      1.6956522803375479e-01 -2.6849568830527283e-02
      3.3438797071038406e-01 -4.7654700274935104e-02
      -3.1870900497880363e-02 1.0373562581960925e-01
      -3.4232153434910262e-01 3.0828891311842266e-01
      -1.4498465566764362e-01 1.6046911868695373e-02
      1.7429951756029025e-01 -5.5598076821676230e-02
      -1.8016063255289150e-01 -9.3444055211510668e-03
      3.3995600255122882e-02 -6.2581469574723836e-01
      2.3642625195587481e-02 -5.8357188149816740e-02
      1.5926694410961750e-01 7.4027184294599632e-02
      6.0884651029039616e-01 2.4450007173935740e-02
      1.2619253005852540e-01 -4.4402275200694508e-02
      3.4338133385343653e-02 6.4283262196839275e-02
      -1.9187316456522255e-01 -4.8430081946155784e-01
      -5.3282811808920161e-01 -1.9370739289110522e-02
      1.3648821641931749e-01 1.4813870006946547e-01
      -1.0042120268537769e-01 -5.3636321452389106e-02
      -3.3580865381880741e-03 -2.5293895236597516e-02
      1.3622695249081687e-01 -1.3205675782593698e-01
      9.4890159592633180e-02 1.0760334344501354e-01
      1.0150653614391712e-01 6.3659985751456233e-02
      -3.9486828262261291e-02 -3.1023283114022450e-02
      -3.5247306471847928e-02 -5.2661301482595985e-02
      -6.2288167017795631e-02 -1.9436814089540030e-01
      2.0705028283303134e-01 -4.7547778473910070e-02
      -6.4544962144225211e-03 -2.1143761377312500e-01
      -1.9517430062434793e-01 1.1845308694403128e-01
      -1.2074204533317626e-02 9.6274668133296382e-02
      -8.4078646794517778e-02 -5.7165840825233578e-02
      -1.1687947929860502e-01 4.2089109187632798e-02
      1.0730084976351388e-01 -4.1917964117151957e-02
      6.9538144137928680e-03 1.0444675045580473e-01
      7.7007166692589127e-02 9.3176885959136251e-03
      -9.0759996335969373e-02 -2.4137758053578078e-02
      2.8461646966168593e-02 6.1959113160404457e-02
      -1.2879712133057442e-01 1.1932253094815212e-01
      -2.2607450551150879e-01 -1.5996633317686040e-01
      9.2201415631446723e-02 -1.0983663627185913e-01
      1.5064493717713304e-01 1.0225039447455095e-01
      4.7471593840277021e-02 1.7183686276287657e-01
      -4.0822274103317902e-01 1.6425648735917700e-01
      -3.3263969306415321e-02 -8.3567604059814324e-02
      -2.0069471335400466e-02 -9.8161524961013560e-02
      1.5855866871696067e-01 -5.2786397174168685e-02
      1.0305813547253506e-01 7.4199951114509433e-01
      -7.7206841779266386e-02 -3.1129388388426191e-02
      5.5168535519562412e-02 -9.0311217886022657e-02
      3.7353200218055060e-01 -6.7079380975791580e-02
      -3.2159948881726200e-02 2.3236593170132176e-02
      -1.0959551744631865e-01 -3.2033112233314265e-01
      6.1729476065646931e-02 -1.2594863358165831e-01
      4.5084946446172253e-02 1.5668001320245373e-01
      -5.7998446208234265e-02 1.9717291914974791e-01
      2.1601820884010955e-01 3.5427345477263184e-01
      2.4089441291442952e-04 -3.1562363062823215e-02
      1.4510511167746459e-02 2.6020957832417452e-02
      3.5947627762382708e-03 7.1677210854452680e-02
      -6.4778232426189686e-02 -3.8226357448770849e-02
      2.6898901993964547e-01 7.1524078626276757e-02
      2.1095350183691280e-02 4.3709310998139503e-02
      1.2806794367162406e-02 -3.2832573568605264e-02
      3.8399909073811182e-02 2.4047141830531365e-03
      -4.8873892683537291e-02 -1.5947083957242664e-02
      -4.7818640946446486e-02 -9.4065513960348100e-03
      -3.0896884536186452e-02 -1.1313207723507180e-02
      -3.0630867261407482e-02 1.9234282652439066e-02
      -7.0113793181184395e-02 -4.6007179413188284e-02
      -1.2632495720532076e-02 -1.5423295604528013e-02
      7.5347539441130276e-02 -1.0009969771741898e-02
      -3.5848036816088107e-02 -3.1817377205699930e-02
      9.1301347272093830e-04 -7.7816193015064983e-02
      6.4619291108781165e-03 2.3472699522226848e-02
      4.9594594004691607e-02 -2.0141502340821529e-02
      -6.0686846911756104e-02 4.7464182481255529e-02
      2.5850051303535081e-02 -3.2144307513896466e-03
      -3.9134712603230523e-02 -4.2827828399895268e-01
      1.4244776706339471e-01 2.3105214647510569e-01
      1.2173029878812247e-02 -8.8482066976205698e-02
      9.5116140342434971e-02 6.0116491881584196e-02
      -5.6474517846500667e-03 1.8670923415442894e-01
      2.2119654265318305e-02 -4.1420972094305689e-02
      -2.2729323302302408e-02 4.9542987303656597e-02
      -2.9131136129475425e-02 -7.4108967996082867e-02
      3.6282202286158534e-02 -2.0871572207150076e-02
      -2.5445429897901389e-01 -1.2020285855877166e-02
      5.2900583281815412e-02 1.0104821580058473e-01
      -1.7146247819146332e-01 5.9326848981891489e-01
      -1.2005826129239811e-01 -7.2621909111532629e-02
      1.1887908148679079e-01 -1.2054847131240530e-01
      1.3128635267535191e-01 1.3106115202363561e-01
      -2.0886579571866173e-01 1.5353058304365244e-01
      -9.7821416120664875e-02 -3.9477594995517909e-02
      1.3416954299914347e-01 3.7908641750464852e-03
      1.8260895443808101e-01 -8.2241485877130056e-03
      6.5907889311380322e-02 1.5947041224508854e-01
      4.0154906551516559e-02 2.3853076572009807e-01
      1.1206188602647604e-01 -1.6578808816197504e-01
      1.5594362644020211e-02 2.2499344744550157e-01
      1.7653252276452797e-01 1.3110651791208047e-01
      1.5265826166780433e-01 3.5065482523912214e-02
      -1.0389900317716939e-01 1.6585573016094737e-01
      2.3462171735079659e-01 -5.3516152551114929e-02
      -3.8521232011643820e-02 -1.8383363589593310e-01
      1.3259870539614399e-01 -2.0371666469018440e-01
      -4.8018166585312973e-02 -1.5514901955419247e-01
      -7.7213987184496471e-02 -8.8603354349742897e-02
      -9.2904001541931139e-02 2.4356134822535879e-03
      -6.1101255857769717e-02 1.6239305830123973e-01
      -4.9863912178238275e-02 8.8928518863765540e-03
      2.4327264668369594e-03 4.2704522304234408e-03
      -1.2296659413675762e-01 3.1109867589566905e-02
      3.9869813069076804e-02 1.7946919441531120e-01
      -1.0541313203671815e-01 -7.1303130425928951e-02
      6.4638311373021756e-02 2.5609647616723470e-02
      -1.0917246825848391e-01 1.5518173751250837e-02
      -1.0560903235511961e-02 6.3652206811208964e-02
      4.0555623936910468e-01 -1.9416647476341982e-02
      6.4120634709309884e-02 -1.5191316065564134e-01
      -2.6518593581384309e-01 -2.3976781908047406e-01
      1.4934895483943436e-01 1.3287580927179915e-01
      -6.3715853010343743e-02 -1.6554104816083815e-02
      1.1131879836845446e-01 -1.5566297817219016e-01
      4.9945005364175225e-02 -2.3642584411437205e-02
      -4.9327567633168012e-03 -5.1957169235133915e-01
      -2.4755612708016433e-02 2.4873869407575203e-03
      1.4776610676283414e-02 -1.4586099568204391e-02
      7.5958646133695669e-03 -3.3745205897957431e-02
      -3.9470863424452038e-02 1.1987618576080276e-01
      -7.5427913842668559e-02 2.5994752330727883e-01
      9.4755827112889768e-02 -8.2824784486945271e-03
      1.6157518189027643e-02 -2.3884411962016189e-01
      1.6420415056777701e-02 6.3313954046661639e-02
      -1.1347955552755833e-01 -1.1548693674872532e-01
      -2.9507306943733817e-02 5.8680381914364664e-02
      1.4797359917885253e-01 -3.2160366656335163e-02
      3.4861174981502480e-01 1.8155493574463114e-02
      -2.4623195236128086e-02 -8.8374477077699930e-04
      9.4935611886224944e-02 9.7980426468970885e-02
      7.2581939723492736e-02 9.1818863701142658e-02
      5.9826491334197339e-02 -4.0339716747577962e-02
      3.8646801121742430e-02 1.4592244040465061e-01
      -4.6461424199206548e-02 -6.0380922421886592e-02
      -1.9254677948136245e-01 1.3862531258486577e-01
      9.6294882608590603e-03 2.1335273019926909e-02
      -1.6860168288809230e-01 -1.0431596571882597e-01
      -1.2144061396326379e-02 -3.0694749214080559e-02
      4.2205644465644274e-02 -8.7065507669024128e-02
      -1.6366769727821546e-02 -7.7465143367211969e-02
      -4.7289083297940356e-02 4.9321006952714019e-02
      -4.2322363430515125e-02 -8.0703987985946395e-03
      -3.0860173469185390e-02 6.4107251601135645e-02
      -4.4289057643686356e-03 -5.1824586065933889e-02
      -3.7672123886704233e-02 5.1444181306653236e-02
      4.1909072688666629e-02 -1.0346589514817318e-01
      2.9213827950662200e-02 -4.2873093021733627e-01
      -3.5645626682361824e-03 2.7525965632205218e-01
      2.5620958550257793e-02 1.2607154872014789e-01
      -8.4567570650290594e-02 -1.8846020514671563e-01
      -1.9736067971912075e-01 -5.8366380454598639e-02
      1.5736792731849161e-01 -5.8578069036386876e-02
      -5.5686441333432445e-02 -1.6133833306005388e-02
      -8.7459231334693341e-02 1.1884621460239865e-01
      -2.1523596655542817e-02 6.3385671099904409e-02
      1.1865133350244018e-01 -6.0581740994523632e-02
      4.2768451154209783e-02 2.0524970735137735e-02
      -1.4345790176537071e-01 -2.7499662255889634e-01
      -8.3266930295398875e-03 -2.5059454087262460e-02
      -2.3502253367372636e-01 2.2278039987689519e-01
      6.9445619912898482e-01 -1.6222260936009894e-01
      -1.3104210038840311e-01 3.0302184352071822e-02
      1.6151395295749080e-02 9.3145729760007220e-02
      -5.2336296127936034e-02 -6.4846511616964364e-01
      -2.8643748237569655e-01 -7.2149902239354483e-02
      -1.2203750705132277e-01 -2.3167632810372343e-01
      -8.5685314175736313e-02 -5.8224777824424853e-02
      2.4438430740185157e-02 -1.2077328269132397e-01
      -1.0026713610991346e-01 -2.9016857195222272e-02
      -2.4996493614727111e-01 -1.8651179912887969e-01
      -2.2506710787593615e-01 4.7512070805728487e-02
      -1.8192808133559335e-02 -7.9619755920332130e-02
      -5.0261166275478830e-02 -3.3329968158548273e-02
      -7.1029323085616200e-02 2.1020196683456932e-01
      -2.0281716186725529e-01 -1.8446250137591089e-01
      1.2195788722373629e-01 1.9202601908181111e-01
      1.3955287560373764e-01 1.1279968303813653e-01
      -3.2254473814562729e-02 5.5400590799308029e-02
      -5.7030480234821525e-02 8.8785468331560286e-02
      -8.5332733567020091e-02 -1.5408353246067336e-01
      7.8978669716791447e-02 -8.6184613593486128e-02
      -9.9097465289904346e-02 -9.2306076586064711e-02
      4.4328367531118212e-02 1.2259267936268708e-01
      1.7787957532069176e-01 -2.1587682132794654e-02
      3.4267715752834070e-02 2.4054966029566988e-02
      2.2159306727874223e-01 -6.4952303276845841e-02
      -1.4362221430164573e-01 -1.7272836923711815e-01
      -2.2650064988046287e-01 6.7078966971544737e-02
      -3.5719994253879439e-01 3.2942491327767331e-02
      1.7894916614612741e-01 -5.2751234763909124e-02
      -2.5225723503169373e-01 -2.5564549484098675e-01
      -1.8302743189831026e-02 -4.1210515199737098e-02
      5.5870789836934359e-02 2.6364959754994427e-01
      -3.5837473214130244e-01 1.1561533548722795e-01
      7.0942160938937543e-02 5.2641147131024091e-01
      -3.7848644453273156e-02 1.1920608784217453e-01
      1.3450737501169102e-01 -3.0086831114526275e-01
      1.4732545791937030e-01 -1.2251098518953578e-01
      -6.6670908752315725e-02 3.9855049591122321e-01
      -2.5448885613315553e-01 -9.1459268273464761e-02
      2.1525658414488938e-01 -4.0579168063378734e-01
      1.7382865564366162e-01 -3.3910320900525752e-03
      -1.9070465154207933e-01 2.2871839780624273e-01
      1.5723510884045408e-01 2.7774381399400017e-01
      1.5583772218145714e-01 2.4605711792910079e-01
      3.8488667319541864e-01 1.9958127675678058e-01
      3.4847207869217044e-02 1.2302331825888096e-01
      -2.2006953354303918e-01 2.4165484172755824e-01
      3.2293842063072248e-01 4.3882875455867332e-01
      3.4755750324870494e-01 4.2371562097852455e-01
      2.6421122888677276e-02 -1.2322526715714260e-01
      1.1593741402524467e-01 -1.2015236315267720e-02
      -8.3898248464838662e-02 -2.3579645397279261e-02
      -4.0715045881488182e-01 3.9068763119088523e-01
      -3.6854481951895462e-01 -2.8843912825962104e-01
      -4.2167011518762193e-01 -3.0745402212866879e-01
      -2.2854455652407255e-01 -1.2011386856187467e-01
      3.4366769446203586e-02 -2.6662209972531305e-02
      2.3944974279728842e-01 -1.6487047630802244e-03
      2.2727473079271615e-01 -2.1565847353821988e-02
      3.2767270115439111e-02 -2.4221057202717339e-01
      2.9231553095093027e-01 3.1474110810219259e-02
      2.3922606611992367e-01 -3.2867481282656941e-01
      -8.7888815987445953e-02 7.0295569859782886e-02
      4.6121883842425486e-02 -3.4784655480274501e-01
      1.8486796708833256e-01 -6.4397217269805277e-03
      1.8544167262759292e-01 4.0312083738704918e-01
      -2.6235002077789138e-01 3.8674591345710507e-01
      -6.3739692344276247e-02 1.4157922483389218e-01
      -2.9475395690942197e-02 2.5414079933463418e-01
      3.8482459261269908e-01 -6.1859261309696066e-02
      -2.1014632084822203e-02 1.5661506672084993e-01
      -4.4042385620257246e-01 3.9257683335650778e-01
      -1.8175458049389909e-01 -2.1261564533074418e-02
      -1.6061710499864865e-01 -2.5824658481701419e-02
      -2.4104322823087015e-01 2.7393240426642481e-02
      -3.0786313006653628e-02 -4.0093246426301926e-01
      -2.6145476132867589e-02 -5.5107617177967326e-02
      1.8880856297875362e-01 -9.9783955557152058e-03
      3.8574659657910432e-01 7.3209402903552129e-02
      -5.1971566450953206e-04 -6.4601973887667427e-03
      -2.8616027010003015e-01 -2.7105371900742877e-03
      -1.0639179545943477e-01 -2.2924698193366633e-01
      -2.0528193196669861e-01 3.0756083996147397e-02
      1.5386289739489833e-01 1.7268407566146268e-01
      -2.9756725662003419e-02 1.7491435506527422e-01
      1.3896249439002683e-02 -5.4233546750827401e-02
      1.3187692107907023e-01 -1.2108489385502898e-01
      1.3300337431596734e-01 1.3182725092049014e-01
      1.4661380829481721e-01 6.3238093654838956e-02
      -6.3465340154368333e-02 -4.3485658094477913e-03
      -4.5081373801395042e-02 -5.4555784310727044e-02
      -5.8978131482385475e-02 -2.2651014824343715e-01
      2.3492707696311649e-01 -7.4922147260810062e-02
      -7.5363150673228171e-02 -2.4696862933550431e-01
      -2.1229702247218382e-01 2.0146618310799926e-02
      -4.6946404026604938e-02 7.3592699971372424e-02
      -8.5657501212587583e-02 6.0354606138918812e-03
      -8.6038418959186139e-02 4.7789846957328699e-02
      7.5478476419004084e-02 -4.3692164761857465e-02
      -2.8612076807502700e-02 1.2353540500576216e-01
      7.2981434040406537e-02 4.7147572229776814e-02
      -1.2637799908886962e-01 -5.9868047229374499e-02
      5.7615519609815508e-02 6.0454137313207451e-02
      -1.6683561813496778e-01 1.4364037125061660e-01
      -2.3536475165612414e-01 -3.5890771892360236e-02
      1.5875101133633485e-01 -1.2646126707954597e-01
      2.0692039053597264e-01 1.3576495367700735e-03
      1.7355199495239401e-01 -1.0792851570672320e-01
      -1.7593444946694531e-01 1.9053485894759772e-01
      -6.0661895768890466e-02 -7.4847471629465034e-02
      8.7343851970427943e-03 -1.4365132936282271e-01
      2.0281543547776629e-01 -9.1070936047764534e-02
      9.1868463210063978e-02 5.1849839163149902e-01
      -9.0146376605059780e-02 -6.6311646491421003e-02
      8.3426891261926248e-02 -3.0038347212146915e-01
      5.6890606570778945e-01 -1.3030541258522435e-01
      -5.3690186420204088e-02 3.9144927876727929e-02
      -1.4422256852664986e-01 -2.3762821501115186e-01
      1.2857978667454134e-01 -4.7107525330878924e-01
      1.6540932355733257e-01 -1.1329664149021132e-01
      -1.0752610881014296e-01 4.3677914963332409e-01
      -4.4133812901080869e-03 6.3727823295189190e-01
      4.3092132397575894e-02 -1.2571898139807294e-02
      1.0805800637422604e-01 7.8605422266118372e-02
      1.9361630989076833e-01 1.4312510967031278e-01
      -1.5937181135229639e-01 -3.5937123153574703e-02
      4.6070475346088652e-01 1.2150702141540393e-01
      8.2453262134174615e-02 1.1726468545388548e-01
      -1.6714145053396270e-02 -5.8348474822701134e-02
      1.5902190630857163e-01 1.1764406248167643e-01
      -4.7693561155129599e-02 -5.4364654712913034e-03
      -1.0638602179898418e-01 3.4015719327442281e-02
      -2.1397950713521247e-01 -8.4303887774388228e-02
      -4.3343007606158841e-02 -1.4432210843905256e-02
      -1.2138564453521272e-01 -8.2994577479779744e-02
      -5.7648592706009943e-02 3.3393323592822680e-03
      2.3320588175169810e-01 4.7146118138420991e-02
      3.5092844430434596e-02 -1.0305875609932967e-01
      2.6228438631914403e-02 -1.9276026642236430e-01
      2.0295064595884978e-02 -5.5608714610235720e-03
      1.6616659151272042e-01 -7.7855845460463133e-02
      -6.7138590119091512e-02 4.3964155273200980e-02
      7.6847923405184062e-03 -5.2035256627779032e-02
      -3.4664110888451324e-02 -7.8073093181898034e-01
      1.5198667774139563e-01 2.7620767946339797e-01
      -2.5558306850858213e-02 1.6086196571122334e-02
      -2.8137511800618842e-01 -1.5489167492956113e-01
      -3.3605092993197189e-01 5.2974550836035617e-01
      5.7107706258236475e-02 -6.0504052682902203e-02
      2.2867177557232714e-02 1.1157626585165957e-01
      -1.2564928955150720e-01 1.7312893750197171e-02
      -7.2084886024020170e-03 -7.1037291267654762e-02
      -5.0753261065802924e-01 3.2978526577702817e-02
      -2.2589690179689551e-02 6.2266497946445933e-02
      -1.1305554811696283e-01 3.7517211449895066e-01
      -8.9826428766461408e-02 -7.5274794514704077e-02
      -3.6442056212800489e-01 1.7388204710211297e-01
      4.5096636183332556e-01 -1.4638856370218833e-01
      -5.2753303286039402e-02 8.8753585291757572e-02
      3.2037303907492587e-01 1.2987390031046481e-01
      -6.8606250386256507e-02 -4.7001574224734749e-01
      2.5304476439173239e-02 -1.2999898401899346e-01
      -2.4225645503420401e-01 -2.9518044931839182e-01
      -1.8646055742358517e-01 -2.4845522390514491e-01
      5.6705655974322269e-02 -9.1559202369669732e-02
      -2.9240292235933724e-01 1.7459488360208757e-02
      -3.5033838917031151e-01 -2.8292628376338808e-01
      -3.2898912688102228e-01 5.5733589170871012e-02
      -3.8153681667431327e-02 -1.0293471987818428e-01
      7.4715486463723446e-02 -7.6041628317252585e-02
      -5.9641733364229170e-02 2.5755617061608244e-01
      -3.0096394218369282e-01 -7.8844300638039655e-02
      2.5413376670575361e-01 3.3109636078634586e-01
      2.8622491397049965e-01 1.8075311466576621e-01
      -5.6980656356290849e-02 3.2888994183574660e-02
      -8.6411642838581063e-02 9.4740681723401249e-02
      -7.3150540729956651e-02 -2.6671011515351267e-01
      7.7118693766917823e-02 -6.4642808445160266e-02
      -4.9302178089412507e-02 -2.8545647961061471e-01
      8.2327410534974069e-02 9.9985745469536591e-02
      2.7661330717138743e-01 -5.5631146585197196e-02
      5.6100691455199608e-02 5.9095475864435872e-02
      3.3486549944095362e-01 -2.0331173019930018e-01
      4.1053175192409408e-01 -1.4978152963608429e-01
      -5.5290486832009086e-02 2.3628271497786849e-01
      -4.2185148839118219e-01 2.6431504984295462e-01
      -1.7846160664377834e-02 3.9565179777640111e-02
      -6.6035033175282934e-02 -3.3794758609955433e-01
      -7.0864798914626478e-02 -6.4662616229740788e-02
      5.9463166266136597e-02 3.3315076110640868e-01
      -4.3456951814326711e-01 1.8376771307424111e-01
      7.1351911316687527e-02 -2.2343585581568198e-01
      -5.8116793988160477e-02 2.4536424807164084e-01
      -2.5191268105285058e-02 4.0680826762368803e-02
      -1.7725314639943218e-01 1.7059895248963187e-03
      -3.6571003011642858e-02 -3.5211706146537658e-01
      2.4220189328750005e-01 7.5784451062133384e-01
      -1.4453845412340247e-01 8.3033490364523913e-02
      -3.9963123594455953e-02 1.1422980238576522e-01
      1.8638579982694367e-01 -7.4434507815445236e-02
      -7.7056506984605810e-01 -2.7724901244805966e-01
      -1.5678778569393675e-01 -2.2522385089213184e-01
      -2.7945815607753305e-01 -2.5571694318648069e-01
      -8.1337103199719124e-02 -2.3318352105144539e-02
      5.6319206391434021e-02 -2.8316160660150391e-01
      -1.0174562949243626e-02 -4.0522217478736788e-01
      -3.1710980760883872e-01 -3.7197795628644759e-01
      8.7316466205407867e-02 3.1293102481059133e-02
      -1.8088394590452356e-01 2.3631047032758010e-02
      -4.3085758498938566e-02 -7.8531773457013773e-02
      2.5383034707815760e-01 -2.8336480482122411e-01
      1.2659314388426565e-01 2.7899351902795366e-01
      3.2765020861461996e-01 2.6247123602138195e-01
      2.4200877506586185e-01 2.1642858345195539e-03
      8.4544935668127388e-02 -1.0332809409714992e-01
      -4.1359125628677260e-02 -1.1372483455188608e-01
      -2.8029942286081511e-01 1.1756907114038029e-01
      -1.0054377006716311e-01 6.3552377402592314e-02
      -3.4833507411998338e-01 8.5878350107992690e-02
      -4.9895204274876002e-02 2.9433971635943312e-01
      -2.1114090813423216e-02 3.9939402649309723e-02
      6.3540812505946315e-02 3.1241712787518661e-01
      -1.8168490292937989e-01 -3.6267561896135496e-02
      -2.4971170158098863e-01 -1.8224191362832146e-01
      2.4271151041848540e-01 -3.5902560084265012e-01
      1.6898009470280645e-01 4.1441405180052099e-02
      1.5404753961551497e-02 -2.5311290111691920e-01
      -3.2038528156286250e-01 -4.9040633831774462e-02
      -9.1673841969142134e-02 -4.4383375775227454e-02
      3.7424164641885105e-01 -3.6500061300695957e-01
      1.3827405776499502e-01 1.0284416305529327e-01
      4.9164330532792438e-01 -7.9915183421286090e-02
      2.5098337699719464e-01 3.8033165302575465e-02
      -3.2445002786205601e-01 4.3832628288438265e-02
      -6.1002719530912970e-02 -4.0429257853747430e-02
      -1.9271706696921359e-01 9.1582425417562494e-02
      4.3333564033065436e-01 -6.5267964910054960e-02
      -4.5355451454221452e-01 1.0661257044937632e-01
      -2.6693997764902877e-01 8.7184883087742474e-04
      3.2605299962748491e-01 -3.7771894417322399e-01
      1.9955816525639808e-01 4.4950752375408892e-03
      -8.4736133512225559e-02 -1.3769744558090022e-01
      1.1139318045343278e-02 2.6636423411732824e-01
      8.8660597605279667e-02 -2.0693013351054015e-01
      -8.3408896231329827e-02 3.7188694480368933e-01
      -1.9366709928607476e-01 -1.2989959601337681e-01
      -1.8052570161443460e-01 2.9997840829142870e-02
      -5.7451389725607434e-02 2.0526641544064195e-02
      -2.2506148139335647e-02 -4.4089494178068823e-02
      -6.1916831958497967e-02 1.3377977629016885e-01
      -1.4306603873018017e-01 -3.1657926192365987e-01
      1.4306285070783457e-02 1.2889411744890192e-01
      9.0545547947697355e-02 3.0610351384758101e-02
      -5.7839997788323855e-02 3.4962330735275590e-02
      -5.6567435843835071e-02 2.3244263077047442e-01
      -6.1187992838431488e-02 -7.8461255664067059e-02
      4.7641447696976161e-02 -6.8449864667744553e-02
      -2.5831883068720296e-01 -4.3928416299299826e-02
      3.6208469261482891e-02 2.2229394786654927e-01
      1.1562765053254538e-01 -5.8165023176161623e-02
      4.1590326217547824e-02 4.9501664233290991e-02
      1.5428115493928016e-01 -3.2532661532835669e-02
      -5.3753854448580252e-01 -4.7871554337128218e-02
      -1.0029270349833283e-01 -7.2369532630659874e-03
      -2.9257657569816092e-01 -3.7938862916004978e-01
      1.8821473593306662e-01 -4.1554214686490348e-01
      7.0839910650706037e-02 -2.0811128170660695e-01
      -4.9550758082710360e-02 -4.5704601765528596e-02
      9.8010352579529697e-02 2.0501131971350584e-01
      -2.9165957765127387e-01 5.0669599921089145e-02
      4.3573149797143329e-02 2.3398759816258388e-01
      -4.0361899716712127e-02 3.2770838721297026e-02
      1.0377640772542344e-01 -2.2119534631136353e-01
      1.3037327108578145e-01 -1.0986090616906451e-01
      -9.7572633106665252e-02 1.2280445497135181e-01
      -1.5019944079748945e-01 -6.9199335905629128e-02
      8.8377653182287658e-02 -2.7696258693367631e-01
      1.5515660696504555e-01 3.4386482774253146e-01
      -1.3844787484144880e-01 6.7426362205169163e-02
      1.5064536508519330e-01 3.9589584099403807e-01
      1.0248181268486245e-01 7.0108927667454829e-02
      1.5113566269357159e-01 6.1515347160575780e-02
      -3.6648590068742920e-01 1.1326955328663846e-01
      -1.6845174364619100e-01 6.2239687255337448e-02
      1.7656625392979045e-01 1.5511026500222924e-01
      1.0078375076673018e-01 1.3306106967767306e-01
      5.8867988262804406e-02 -8.7016696489411488e-02
      -6.3494490826136327e-02 -1.8498987637142883e-01
      -8.1588092254420083e-02 -3.8751075055106707e-02
      -1.8003187612189853e-01 1.3017066289857598e-01
      -2.7649813702939524e-01 -1.4085218353211224e-01
      -1.4243082857710251e-01 -1.3620806115013681e-01
      -1.0733214297323034e-01 -9.2697830973649059e-02
      5.9735615471277592e-02 -6.1003128041971527e-02
      1.8383802493219037e-01 -4.0919946398850361e-02
      8.3384325372754670e-02 1.1692770055525643e-02
      -2.7084875936892492e-02 -1.6416439131779975e-01
      1.1708838108310467e-01 5.3251828775989517e-02
      1.6490397790462685e-01 -9.5761700733551280e-02
      -9.4266109355818181e-02 7.9773940001120619e-02
      6.7985895991210549e-02 -8.9841132155830908e-02
      7.4513393653241083e-02 4.7910049221674406e-01
      1.5205844249402262e-01 1.5093646271283248e-01
      -1.2886606338310874e-01 1.0718822938409019e-01
      4.4246365241130320e-01 4.9754480971937542e-01
      2.6178653671118962e-01 2.5258324858942288e-01
      1.0876978493737094e-01 -8.8110043916902331e-02
      -4.0009523616780777e-02 1.2701657624403850e-01
      -1.1705613155335108e-01 1.2528042748692744e-01
      -6.6204065216097313e-02 2.4953021689597028e-02
      -1.2579279554607337e-01 -5.2744786216486518e-02
      -1.0664047646667860e-01 1.4469053360659210e-02
      3.3410795514862311e-03 -3.8016506045466025e-01
      -7.7850613035925168e-03 -7.2417390463494130e-02
      -5.3853965393975321e-02 8.6681651889499847e-02
      3.8531656631354760e-01 -2.2040729476513622e-02
      5.7692159384939580e-02 -1.1612385653221835e-02
      -4.1596288786148419e-02 3.8054905400400942e-02
      -1.8242926192998699e-01 -1.9495194860513623e-01
      -6.7639456032837358e-02 2.7702325283508757e-03
      -1.0138371154289252e-03 -2.6441676194991475e-02
      -1.2954715718066245e-01 -4.4274933187276468e-02
      1.6833244670454463e-02 -2.3608266071122645e-02
      -4.9398013433904771e-02 -1.8847335740838922e-01
      -1.2539673764656811e-01 -1.0209194513677457e-01
      -1.0992281893061018e-01 8.3237021786980697e-02
      -3.0664871391777822e-02 -1.2372137736699665e-01
      -1.5772631724857203e-01 -6.6762903068250751e-02
      -8.2139716607436256e-02 -2.3945865499587257e-02
      9.8950844169590092e-03 7.0160581050163987e-03
      4.6574297821211308e-02 -1.8232794169183952e-02
      -5.4569887823061741e-02 1.3711509692981341e-01
      -4.0498385888991496e-02 1.1272932360906712e-01
      -1.0621162481550746e-01 -1.6873714415063485e-02
      -1.1308298416088546e-01 -8.5991126596552128e-02
      1.1085117860154144e-01 -8.3177589597236853e-02
      1.0838427982986696e-03 -4.4310176433894240e-02
      1.0369292190468500e-01 -5.7048653266486647e-04
      6.6052779817579094e-02 -7.2612371349125154e-02
      7.0061128122904673e-02 8.1383379416264140e-02
      5.0225105119990968e-02 3.4431496314327306e-02
      3.1566551780444117e-02 -6.4040773725226957e-02
      -5.7777541409333867e-02 -2.1758238116976043e-02
      -5.1831541276901344e-02 3.5220104472096586e-01
      4.2908195993006665e-01 4.7008048302003315e-02
      -1.6254862237016923e-01 -6.2792991982625140e-02
      -8.2705446511611963e-02 -1.0215969207690717e-01
      -1.5666583316502534e-02 1.3485607919595810e-01
      -3.0362669398689267e-02 9.9124692559038000e-03
      1.2804755546068100e-01 6.0214990515488953e-01
      -1.1226275631209051e-01 6.5501567799547078e-02
      1.0106031314968959e-01 -3.5279568936876987e-01
      5.7685951812159053e-01 -1.3117018164619168e-01
      -3.7260463590981507e-02 1.6952858760025022e-01
      -1.8408496337557637e-01 -2.1550781766704566e-01
      2.1557828521090358e-01 -5.7890159220890358e-01
      1.9196982490798689e-01 -3.8663303705742796e-01
      -1.3556157920512379e-01 4.9276374485886248e-01
      -1.0705459097746557e-01 6.6189097711942679e-01
      7.9368196502996313e-02 9.2876446051000566e-02
      2.3364743462209539e-01 2.0373439753683167e-01
      4.4068725116465141e-01 1.3665422898028917e-01
      -2.0833835684893440e-01 9.1373117182996330e-02
      3.9785445852422080e-01 2.9041161068873722e-01
      2.2763104885563484e-01 3.0510813487282495e-01
      -3.4813441158171921e-02 -8.0746882131301212e-02
      2.6275627456066053e-01 2.1249794371147199e-01
      -3.6760171915501648e-02 1.3306135639520725e-02
      -2.0356360906112356e-01 1.4735302083549576e-01
      -2.7669705981257342e-01 -2.1066759924661047e-01
      -1.7272247865144660e-01 -1.1105590194522569e-01
      -2.2094989627972733e-01 -9.2150591857718997e-02
      -9.6205868655323740e-02 4.0136240971158303e-02
      2.9347554790465452e-01 9.5279316290567781e-02
      1.6359676151072927e-01 -1.5835631506463382e-01
      6.0187900907628634e-02 -1.9319028239904812e-01
      1.3734600496287849e-01 -3.2747991178186907e-02
      2.2160311521403459e-01 -2.3833338041703964e-01
      -7.1663634913389673e-02 5.3700383670662342e-02
      -6.7170298194616992e-04 -1.8737947924490875e-01
      6.8668889061976102e-02 -8.2513362222379849e-01
      1.4648185853089415e-01 2.9528311939039348e-01
      -1.1407011440938783e-01 1.7583505193584889e-01
      -5.6889958069604629e-01 -4.0627074958177484e-01
      -5.8945164932186334e-01 7.1694438791842063e-01
      1.9472320145900848e-01 -4.9834550866316142e-02
      4.7556656979148321e-02 1.3803852668275951e-01
      -3.3118978709670943e-01 1.9977077002606938e-01
      -1.1585129376657184e-01 -1.4950719383538380e-01
      -7.4937972253826624e-01 7.9427250782346387e-02
      -1.5348516664735992e-01 3.3438541414275554e-02
      -8.6775539827368284e-02 2.3374667085955844e-01
      -6.1874539082312198e-02 -5.3301254267548816e-02
      -3.4870599256998996e-01 7.8761263220122890e-02
      -4.9882913054216806e-02 -7.9595832483399728e-02
      -7.2860439729164367e-02 6.3917393900335115e-02
      4.7881870930552228e-01 6.3540936603611918e-03
      -2.3250009620611571e-02 -2.1122985121953949e-01
      8.0364433654683556e-02 -3.1386246838232899e-02
      -1.9299847110376672e-01 -2.8344768971999473e-01
      2.7843363668125488e-02 -4.4251922866551907e-01
      4.8231172148447202e-02 -4.3163982551765505e-02
      -2.0197287888506893e-01 -6.2572962648317673e-02
      -2.1799036768163169e-01 -2.0827064125908412e-01
      -1.9682028862864365e-01 4.2490007713667059e-02
      1.6595866825203767e-02 -1.8791991801480556e-01
      -5.6655619453111206e-02 -3.2671057576140514e-02
      -6.8681916153338310e-02 3.1766264169025960e-01
      -2.8406758891005357e-01 -4.2743293293383042e-02
      1.4983992519137360e-01 3.3811797056262982e-01
      3.0824647975426728e-01 9.1616264820712067e-03
      -3.2689956639250409e-02 2.8467039040866532e-02
      -5.5725018169486884e-02 7.2511659872823805e-02
      -4.6751438225569722e-02 -1.2633801295931016e-01
      7.1135906465956564e-02 -6.5636686087344923e-02
      -3.6907818676323964e-02 -2.2701245172519788e-01
      5.0596221642248022e-02 6.1031470894748037e-02
      1.5700071130386276e-01 -3.6003829985304221e-02
      2.8137631193999982e-02 3.4952379131900850e-02
      2.9887242267755326e-01 -1.5180042590186990e-01
      5.3867496555789074e-01 -1.0350948834862610e-02
      -1.8702570377153546e-01 2.1562767586622064e-01
      -4.0716142068130895e-01 4.0845241062290272e-01
      6.2634837823537459e-02 1.9453738276771815e-01
      7.8001284320170297e-03 -3.3989679550110441e-01
      -4.8455786836577988e-02 -5.2015652735872359e-02
      3.0081915610983150e-02 1.6619471184728107e-01
      -4.1909578466134306e-01 1.0901991079137723e-01
      6.3107551837571954e-02 -3.8916046028250084e-01
      -2.8879478692056856e-02 9.0907023797740266e-02
      -3.9689562818172285e-02 6.2961482904313748e-02
      -3.5301879090761829e-01 1.8277741135204029e-02
      -2.3471205895334649e-02 -4.2072058638322285e-01
      2.0898309070015159e-01 5.3174697103549329e-01
      -1.3002757584176181e-01 5.5596021150474358e-02
      -5.7723395613053202e-02 2.7121623984580689e-01
      1.3643591780759409e-01 -1.1545676817070272e-02
      -7.2556694355718454e-01 -2.7121010018872505e-01
      -9.6983881726249152e-02 -2.4784527261326314e-01
      -3.4668837991937590e-01 -9.2244435783444961e-02
      -2.2742417246738222e-01 -2.5873178011318346e-02
      9.9178534716223649e-02 -2.8005507004410013e-01
      -9.9813276587517485e-02 -3.1664874217839006e-01
      -2.8886445331006144e-01 -3.0711399547864909e-01
      7.3353038681798502e-02 7.2787705878089956e-02
      -2.4758473262479574e-01 -5.8272824902077351e-02
      -2.6580393695914657e-02 -7.7290395279919225e-02
      3.7415882629975450e-01 -3.6029278813922749e-01
      1.4754264359098801e-01 2.5423021468317286e-01
      4.0087929319807697e-01 3.2547477008824049e-01
      1.4123048574867861e-01 2.9346160680169799e-02
      5.9104417884744860e-02 -6.7375812818517428e-02
      -7.2865583136622336e-02 -6.0312098472314946e-02
      -2.0013481801078556e-01 1.1826460462904168e-01
      -1.1606735911732033e-01 7.2519274178043241e-02
      -3.3076376752531966e-01 7.5685053156380327e-02
      -7.9361295774424898e-02 2.4258345645144111e-01
      -1.8299626392521754e-02 1.5959770947961509e-02
      5.6315941426734906e-02 3.4923468519729761e-01
      -1.8867956721554202e-01 1.6847701626412062e-01
      -1.7883340233264827e-01 -3.8727693276871045e-01
      2.6628799833488359e-01 -4.4823683369763084e-01
      1.4487423098558988e-01 1.6330331012872359e-01
      1.0717560677658297e-01 -2.6311526278023628e-01
      -3.9147259444239185e-01 -4.1076092675157730e-02
      -7.8377860167928026e-02 -8.0323087188347381e-02
      2.7832903014971699e-01 -4.5116566842128131e-01
      1.0977080627504926e-01 1.0851635249554073e-01
      3.2161164630289146e-01 -4.4436156569195862e-02
      1.5109780178096813e-01 7.0973499777601368e-02
      -4.5278848105111319e-01 4.0877731202959933e-01
      -1.1681823361687672e-01 -5.2153024087997088e-02
      6.5997976559708654e-02 -8.3016672004062680e-02
      -3.0930894280677443e-03 8.4967856028761571e-02
      -6.7531970267371100e-01 1.3810368099833439e-01
      -4.4754601500886282e-01 -8.4354800341286340e-02
      7.1780798382796673e-01 -1.3276057992296875e-01
      5.4238094894887423e-01 9.9849139479214727e-02
      4.6089601602388001e-02 9.0614108843624253e-02
      1.3802147567839487e-01 5.0016298959930561e-01
      1.3997873900999672e-01 -1.8626549424690933e-01
      5.6905393825341835e-02 8.2900150707515141e-01
      4.9410742591023550e-02 5.4579137248064846e-02
      6.6895375872877888e-02 2.3763763924036310e-02
      -6.2715498622870069e-02 1.6375457226427856e-01
      3.8718747097144901e-02 -5.4013804009740887e-02
      -2.9918662972578853e-02 -8.3583437194927016e-02
      2.8411694338669774e-02 -2.7537874587545635e-01
      -1.4413463044879468e-01 -7.0086187830550858e-02
      -6.2136087873998838e-02 -1.3134920280095194e-01
      -7.2496140754733984e-02 1.4109201349210819e-03
      -1.2427833445275194e-02 3.0666020460952431e-01
      -2.4123061405898837e-02 1.0573510924658840e-01
      -7.5062557668873755e-03 -1.2988278197430239e-02
      -3.7912594638218361e-01 8.5219559110902551e-02
      3.8676658686414969e-02 2.1074877926438362e-01
      -8.6584947818364885e-02 -6.7902366174301204e-02
      6.7532911262969453e-02 2.2013812109655456e-02
      -6.5340112440500683e-02 5.9653077151258449e-02
      -7.4174802109761029e-01 6.2055461790381870e-02
      1.0761493938037145e-01 -1.1293056743522720e-01
      -1.2045615292120683e-02 -6.6750936325578225e-01
      2.1968526726325938e-01 -6.7069543360279271e-01
      4.0473758350995748e-01 6.6262618894417424e-02
      -5.5194786680343624e-02 -2.5021548490864148e-03
      1.5454152257575790e-01 -1.2047425302376709e-01
      -2.9000047566957513e-02 -7.1936420094208156e-02
      7.4964381065703708e-03 -2.9565116899759081e-01
      -1.5041079983158141e-02 -1.2318704167873536e-01
      5.9937355023521675e-02 -9.7264618566543878e-02
      1.5285645805041076e-01 -7.1782776430782444e-02
      -5.3418251047416904e-02 -1.2621082573158962e-01
      -5.6951527368826679e-02 -2.9416543654678246e-01
      -5.3851077413647266e-02 -1.1041498782227843e-01
      8.6611379524669879e-02 7.9652547863101064e-01
      -1.1479245372659375e-01 8.6936563133344857e-02
      2.4705819868040535e-01 3.2601214256712419e-01
      4.7110792771116239e-02 -4.4809237599187875e-02
      -1.1967788764036952e-01 -2.6791712516622112e-03
      -8.0920441991347569e-01 6.7581875008083631e-02
      -2.2130769057194227e-02 -4.8071375918885238e-02
      2.3218255317614037e-01 -1.0829527415544063e-01
      -1.1100780265615959e-01 -1.0498537405796325e-01
      4.1245362622073144e-02 -9.1866009024938831e-03
      -1.8601559787731761e-01 -2.6090087925145689e-01
      -5.7588626743289434e-02 -5.5549743341252920e-02
      8.0621282502051514e-02 -1.0115356477916845e-01
      -4.3644092842462470e-02 2.0668580399116530e-02
      1.0167905547937660e-01 3.0780870062016078e-02
      -1.2414239062845538e-02 -6.8401445721604642e-02
      6.6161886366124439e-02 -4.0097823805300248e-02
      8.5688464670889419e-02 -1.6953707166155626e-02
      -3.4532980470184507e-02 4.4710769420027711e-02
      -6.8225635529551312e-02 -9.4103429773207362e-02
      -3.8660563183183345e-02 3.2872552343920849e-02
      4.9733096374602541e-02 9.1992697684297284e-02
      -5.5075351834826120e-02 6.2531953681981722e-02
      4.8573076828490443e-02 1.1276001329517131e-01
      -2.4065217392200782e-02 9.0767771729655977e-01
      1.3285803691830816e-01 -7.8250258812348664e-02
      3.0358571201911893e-03 -1.4969878698543895e-01
      9.0568669743017705e-01 7.8855889364771881e-01
      5.8758341199412523e-01 1.8713404356660901e-01
      -1.2717353524307790e-01 -5.4584978939368707e-02
      -4.9243985830239430e-02 5.9656295729260851e-02
      1.3210796725761689e-01 -1.6617652892821019e-01
      5.7573402383995194e-03 5.0721148585130812e-02
      -1.9403572512005018e-01 -4.8167794459661475e-02
      1.8986195260382234e-02 -1.4141364826147208e-02
      5.1893107369396507e-02 -1.9884310534533378e-01
      -4.5055351522437512e-03 -3.8873133335662564e-02
      -1.8585183876449324e-01 9.1763573567710491e-02
      1.1007319694819133e-01 -7.5112169298604606e-02
      1.0462944284086416e-01 -5.6803093066872229e-02
      3.2735252829652334e-01 1.4746924023608079e-02
      -3.8985684471362046e-02 -5.0261870929013415e-02
      1.1636702977017375e-02 -1.8037044419538274e-02
      -6.1473970090692415e-02 -1.8463007299576797e-01
      -9.6406243143066589e-02 -3.2966222736091672e-01
      -8.0212319094985392e-03 8.0693335064532759e-02
      -9.8359276485014399e-02 3.2954475118265783e-02
      -2.3385732193572067e-01 -1.8861656355595205e-01
      -2.1709053968677958e-01 6.6513642752135768e-02
      -8.3253211591828597e-03 -1.5359586098068723e-01
      -1.8742283991575145e-01 -5.4926015860621340e-02
      -8.6399865458551217e-02 1.1151745148134685e-01
      -1.4302315858481846e-01 1.3338291962013796e-01
      1.0506961348070330e-01 1.4962928714889445e-01
      7.3040230386383978e-02 1.1854868359828302e-01
      -1.6704993511351681e-02 8.6245526895523381e-02
      -7.4308395838172558e-02 -4.7758736438908843e-02
      -7.4176990425910472e-02 -1.1146673548576219e-01
      1.0118213959536461e-01 -1.1206247195418019e-01
      2.6342534858670584e-03 -1.1094789696076551e-01
      6.0163399888045067e-02 -7.3239200201634103e-02
      1.4677731939394895e-01 -4.7329275701042631e-02
      4.6709520652854809e-02 6.0797153931103097e-02
      1.7212325144547502e-01 -2.1785398033729825e-02
      3.0017405554820564e-01 -2.5839473954509876e-02
      -1.9502758725996097e-01 4.9917919866357907e-02
      -2.0830169896691667e-01 6.8812432294755432e-01
      6.0921801168551681e-01 2.4822692928672965e-01
      -1.0268255392276321e-01 -2.1121606796560538e-01
      -4.7903961221560598e-02 -8.3998274344299351e-02
      -2.1152707542839096e-02 2.2579101714204766e-01
      -2.1240768350898456e-01 2.9361170337893757e-02
      8.3729786852227775e-02 3.5849208265951199e-01
      -7.9221111327804461e-02 9.8244053305986359e-02
      5.5177626618433916e-02 -1.7611441164076089e-01
      1.4522940129756226e-01 -7.9184319057686470e-02
      -2.5248815654290244e-02 3.5744519868758079e-01
      -8.8957822059941322e-02 4.0710047032021017e-02
      1.5118284219376360e-01 -2.5075907389731850e-01
      8.2689277175427581e-02 -6.4043294610343748e-01
      1.7847284627346336e-02 2.7442583546551191e-01
      -3.4106322477329809e-01 1.4338238636444464e-01
      1.5372853729261185e-02 2.0141069308603904e-01
      3.0751502816043846e-01 1.0806025057186064e-01
      7.8029739301490653e-01 7.5605395344926593e-02
      -7.7313918225437817e-02 2.0919762246747642e-01
      2.3015778694280184e-01 4.4871119256390579e-01
      3.4566966576092717e-01 4.4125176180758197e-01
      -2.6093845945056749e-02 -2.6311517224506236e-02
      2.6314898809590304e-01 1.3303676035017098e-01
      -2.2474372459044531e-02 1.0438092873141061e-02
      -2.7874561442302165e-01 3.3178623410821306e-01
      -1.2542801153691982e-01 -1.5323784628838313e-01
      -3.3372496816538155e-01 -2.4687289199375548e-01
      -1.1046106372986868e-01 -3.7847439437159153e-02
      -6.9294104687577601e-02 1.0140460991097274e-02
      8.6534534262551699e-02 6.3398179863350321e-02
      2.0040381364763374e-01 -9.8923464661869992e-02
      5.6720001695857766e-02 -7.7363816437065538e-02
      1.7898626213262808e-01 -3.3147558047544060e-02
      6.1253978554806549e-02 -3.0459832440438633e-01
      -3.0143683417442432e-02 1.8718677741524387e-02
      -7.7562262359746103e-03 -3.0449744306546500e-01
      1.5823373362707532e-01 -5.4485158774704356e-01
      -3.3922614333619622e-02 1.7552378807456562e-01
      -1.4879294303439852e-01 3.9571181781126269e-01
      -5.7876383701669676e-01 -3.4699507163172039e-01
      -6.3439918093228731e-01 3.5445031735258331e-01
      3.7299318795949810e-01 -2.1194483252193513e-02
      5.0477215988591860e-02 4.8057823042651542e-02
      -4.8066199465808407e-01 4.1010250764187600e-01
      -1.1773607751177032e-01 -9.0443256411976078e-02
      -3.4190085778731844e-01 3.5553618855251767e-02
      -1.7878203328624062e-01 -3.7598336892427385e-02
      3.3181789739879383e-02 -9.9248896341436132e-02
      2.2771551456332070e-02 -1.5491415894039465e-02
      4.5909481932471158e-02 -4.6364144273988370e-02
      -2.3557605141148880e-01 -5.8469026044425309e-04
      7.3718963210429880e-02 -5.0073784641283890e-02
      2.7013008642881864e-01 2.4776186565068317e-02
      8.5634894342832182e-02 -1.7000243962627748e-01
      8.7751803458542710e-03 4.2157253189690656e-03
      2.6914222098016298e-03 4.7177463817884525e-03
      1.2994794217700614e-01 -6.9518726267143796e-02
      -1.2273070809563311e-04 9.9063760513283514e-02
      4.7823031503523947e-02 7.5700979657888134e-02
      2.1596081957274132e-01 1.1930393362804326e-01
      2.2392102148767001e-01 4.1999284981409805e-02
      5.9953913965902932e-02 -1.0887167092594782e-01
      -2.1745327223073432e-01 -9.1175723904014620e-03
      -2.2231266244595836e-02 7.4650071633558621e-02
      5.0854825633058549e-02 1.3920367066792783e-01
      6.6908614522632998e-02 -3.2991570892026749e-02
      6.1367435881408916e-02 -9.7720947115624096e-02
      3.6517532138434915e-02 4.6261390395752680e-02
      -5.0288454860293215e-02 -6.4580952126784830e-02
      -5.2263755771339550e-02 6.4258912647844821e-02
      9.2203680478209760e-02 -2.7562772525053604e-02
      5.5444940215050597e-04 -2.3064882310173885e-02
      3.2746805027455771e-02 -9.1430141906668011e-02
      -1.2052294530960214e-01 -7.4974483117002592e-04
      1.6988835309769357e-02 3.4126488478326091e-02
      -2.0853789962943767e-02 2.4711075647169066e-03
      4.8991154149578597e-01 -3.6673931827758870e-03
      -1.5759846708926870e-01 7.9027559788190246e-02
      3.1666821438484274e-02 3.5770759512838607e-01
      2.8424289410371856e-01 1.2140314391345250e-01
      -1.1309314133072661e-01 5.0018845044036586e-02
      -1.7755994083743742e-02 -5.3619515328317671e-02
      -3.1099126399430421e-02 -2.7570620254739736e-01
      1.6565838924260171e-02 -1.0143465165356490e-02
      8.3052187262597540e-02 -6.4872355645097524e-02
      -3.7648210388694217e-02 -7.4818719168001757e-02
      -6.7158257752014755e-02 2.8383927698296500e-02
      -3.0928980029071890e-01 5.2268210788299914e-02
      -9.5518900556886216e-04 6.0203047293046217e-03
      4.4558677182895329e-02 2.4486748267244454e-01
      -1.6463233712020384e-03 7.0306261724891489e-02
      -7.7872155242972488e-02 1.3265190393015281e-02
      8.4062115631944351e-02 1.4501068582134408e-01
      -5.5887102592431415e-01 -1.7510664490994737e-01
      -1.7599368238958687e-02 -1.6455334063960231e-02
      -4.7213242730317115e-02 9.7713397855262354e-02
      2.6787736015334040e-01 -2.8275814972262257e-02
      1.2176842473204222e-01 2.1051954932134208e-02
      1.8002059617579713e-01 1.6790978289658040e-01
      6.7364608462871220e-02 1.6584941741946119e-01
      3.2479714248356738e-02 8.1250610434564483e-02
      -5.9108760209934504e-02 -1.2565071387904739e-01
      1.2891184974261827e-02 -2.7528035783405087e-02
      1.2162077673045067e-01 -6.5194364860128688e-03
      1.2506587351925333e-01 5.9249552739540690e-02
      1.7136620963121997e-02 7.8347740176374289e-02
      -4.8206390641943778e-02 4.2082935337868388e-02
      4.0680523738328804e-02 -4.4782984764116802e-02
      -7.8594598256517753e-02 -2.4206643891176969e-02
      5.1896370672917261e-02 8.3698048289958416e-02
      -3.1647418550022212e-02 1.5201824071682947e-02
      -5.2482437690665316e-02 2.3425579270531564e-02
      -1.0169020462471121e-01 -7.6165457910926479e-02
      7.8009108190206077e-03 -3.9741516096533452e-04
      1.0429472984602277e-02 8.1509442441124492e-03
      -1.5512673639745884e-02 2.1036321108239159e-01
      -1.3262451510094481e-01 -2.9592320682056544e-01
      1.0265274253473440e-01 -3.3886201250866714e-02
      -7.8772454872492542e-02 2.2639078261490264e-01
      -7.4957026842263505e-02 -3.0475917927159007e-01
      3.9286339951561233e-03 -4.1349640295523290e-03
      -4.9813063689790840e-02 -7.1561997464220109e-02
      -2.3161591028572417e-01 -4.4277585756907538e-02
      -1.4505553831654146e-02 6.0825464916856697e-02
      3.1677435684150818e-01 -8.0483863450083147e-03
      -8.0859397385854875e-02 3.0549102448549425e-02
      -3.1698395011192848e-01 1.1234057608996989e-01
      -7.2672201151806254e-02 -3.8411303062762261e-02
      2.9602474985397220e-01 -1.6596359566139193e-01
      5.0020322323404906e-02 1.4119479005094521e-01
      -4.8945130881514787e-01 7.1613638908001681e-02
      -7.5381772676973857e-01 -2.1594885476929036e-02
      6.9256461032058558e-01 -3.8431874147798800e-01
      2.1702727904253147e-01 9.6623349776549905e-02
      1.6114032656218377e-01 2.8782182313802807e-01
      2.1537308863873184e-01 8.7271847490489174e-01
      9.7003085814987663e-02 -2.3647996657594827e-02
      1.7597612519811104e-01 8.3437961635530966e-01
      2.8887861666507492e-01 2.5195346156469717e-01
      2.9024529932078985e-01 3.4614283635777149e-02
      -1.4311639520962862e-02 1.6312613007658577e-01
      -3.5869628970228579e-02 -3.9596181255006073e-02
      -2.0565005111844781e-02 -2.1278465545796441e-01
      2.1910494226135874e-01 -4.7059740050650535e-02
      -2.3754380619378659e-01 -2.4815235116632409e-01
      -1.9578113669927905e-01 -1.8222594282629673e-01
      -4.2972550942818821e-02 3.0729463449322446e-02
      -9.2216978050167139e-03 1.4024129825581239e-01
      2.1423117164517981e-03 2.3109436376710224e-01
      -6.9438802148834074e-03 5.5959841456998498e-03
      -3.2569537072545141e-01 1.2036222961428555e-01
      4.1869105474156940e-02 2.7993831010976127e-02
      -2.4984692545291498e-01 -4.9321390099755322e-02
      5.3480527200363295e-02 3.3092637496039863e-02
      -2.5423753765938517e-01 9.0591321308366224e-02
      -6.1837589725690112e-01 -1.6293161502769455e-02
      1.2531767635053945e-01 -1.3906193715648094e-01
      2.7365391540972150e-01 -8.7933639315921841e-01
      2.6088106089363394e-01 -7.9051465488530637e-01
      2.7001526598397768e-01 2.9239689361373827e-01
      -4.6929962270841390e-02 -2.6502568239683794e-02
      8.5430878762157672e-02 -3.5705106400012193e-01
      2.5330665675908931e-01 -1.3128176530064686e-01
      -6.2305946320066726e-03 -5.3167971093592864e-02
      -1.9086300041442714e-02 -2.0970938926245830e-01
      6.3936746190153687e-03 1.4568977655752127e-02
      2.1599013476357495e-01 3.5407846101151927e-03
      -2.5701287140816938e-02 -1.1427140116773499e-01
      -1.3046886340295624e-01 -5.9284670091254332e-01
      -2.8432529453883457e-02 4.5964197565620292e-02
      -2.2995905381959395e-02 5.6810073791531479e-01
      -1.3650721568991772e-01 1.9339817212142521e-01
      3.3541851302433384e-01 2.4018722778508333e-01
      5.5715585760856376e-02 -1.1672469839454903e-02
      -1.2782187346297094e-01 1.2116117073930631e-01
      -6.1884585893278332e-01 2.2467924022038632e-02
      9.9190178003057877e-02 -3.3811353150940991e-02
      3.1082316096753954e-01 -1.1981585465543571e-01
      -7.1539936379724958e-02 -1.0949154291072542e-01
      3.6162713968427997e-02 2.9856732968453561e-02
      -1.6341375940076078e-01 -3.4709380020563452e-01
      -1.8057429368404900e-02 -1.8226280201698447e-02
      1.0215136783777838e-01 -8.7422350449632813e-02
      1.5404161718497378e-01 1.0963669096522848e-02
      1.2740939397994791e-01 4.8403757461558977e-02
      -1.5546828296447682e-01 5.6587875385851125e-03
      4.0263559731821004e-02 -1.7779523946018699e-02
      -2.0487885258687225e-02 7.3680600060187645e-03
      2.7400631447064552e-03 4.2456314538191570e-02
      -6.0085002458674798e-02 -3.5827657003780537e-02
      -3.4488913484299062e-02 2.1515564920502248e-02
      -8.2262642953594395e-02 5.3730085596736463e-02
      -2.1674703258803923e-02 2.8790153735806286e-02
      3.4096662381583626e-02 1.3235735613826594e-01
      -1.5406035250203573e-02 1.0125045726392072e+00
      1.4532748312262411e-01 -1.1136847395763538e-01
      1.3346762485645038e-02 -1.5971408223744704e-01
      7.5783730785576764e-01 8.3027622046937188e-01
      4.1819827969391571e-01 1.4914454451596185e-01
      -1.5444804107754442e-01 -1.3675451651441453e-02
      -4.1210253676487819e-02 -9.3722025796072802e-03
      1.2523506615185304e-01 -1.8618081716957979e-01
      -1.6222738415816586e-02 1.8302392965888450e-02
      -2.9884791348139172e-01 -3.4498849102602730e-02
      -7.4336984775978760e-03 -4.6211387809878157e-02
      9.9614639174959399e-02 1.1659231506876123e-02
      4.6186706883672414e-02 -2.4681262607612015e-02
      -8.6776450295888374e-02 -6.4706291012572956e-02
      -1.1007076635125407e-01 -1.0415441534118748e-02
      1.5087564316218713e-01 -1.0307230181224589e-01
      3.8569253503135482e-02 -5.5808578663402067e-02
      7.2553585197483617e-02 1.3532239265466087e-03
      2.8612023593396967e-02 5.4959864679956408e-02
      -2.3218880605361741e-02 -1.0604359710036985e-01
      1.2183718125049517e-01 -1.6999867221133075e-02
      -2.2555204443809103e-02 1.2181347400392781e-01
      -1.5074259888668212e-02 2.3677585540764434e-01
      -1.2247729499979863e-01 -5.2896000057067100e-02
      -1.1459037429922352e-01 2.7242525681509318e-02
      3.9899953594774579e-02 -6.4288063073861923e-02
      -2.2107694288032770e-01 -1.4611803978834399e-02
      -3.0112991138944466e-02 9.2984486362002516e-02
      -8.7981517708393867e-02 2.3069246354864081e-01
      -2.8947336131317239e-02 9.7782564421542220e-02
      4.6860084901768254e-02 -1.0010081861363858e-01
      8.7351549773670104e-03 3.4172033601312490e-02
      -2.5930088156313723e-03 -1.0132235179498136e-01
      4.1194179005961664e-03 4.0232754980866051e-02
      4.2737432539565169e-02 -5.8628981437225107e-02
      -1.4080900170930674e-02 -2.9942313137833652e-02
      1.1150473835587692e-02 -1.3256310263959223e-01
      1.8774826732385046e-02 -2.7683099711855509e-03
      7.8664211580292791e-03 3.0767032257617483e-02
      1.0814806503723699e-01 3.9063759239765915e-03
      3.6543194981008398e-01 1.1927550134116418e-02
      -1.8058422683804989e-01 1.3336486481954343e-02
      -1.4011817232722298e-01 4.1180820614602048e-01
      5.9225391746417033e-01 2.3775506329801791e-03
      -9.4119391076571371e-02 -1.2371127580827460e-01
      -2.3454519591812793e-02 -2.0445266324340336e-02
      -4.2518140956928664e-02 9.3254307382970997e-02
      -1.5460053054802658e-01 -3.2690163551955129e-02
      2.8636639256554377e-02 1.7326676184016476e-01
      -2.5592270228164737e-02 -4.4776676991620044e-02
      -1.8421759377175811e-04 -5.4327351288352865e-02
      -1.5121865481278454e-01 -1.2094593310783441e-02
      5.6786456875641891e-03 2.6320053712640656e-01
      1.1752030029918745e-01 4.4657462737792097e-01
      2.2368990567295920e-02 -5.6727304151247125e-02
      3.4859497714892843e-02 -6.6051953049096235e-01
      1.6340123874984025e-01 7.5202300080867784e-02
      -4.6153687397813004e-01 -2.6994267205090422e-01
      -9.9877878238981407e-02 1.3429994443694890e-01
      1.9349991350112894e-01 -1.1700168426747722e-01
      7.6555878098702701e-01 1.2996490280967679e-02
      -2.6044865124815898e-02 1.6587608207433616e-01
      3.1254976001459406e-02 2.8896808888617237e-01
      2.1062554848586748e-01 2.8124853589530813e-01
      -2.1055898950964363e-02 -3.3106563037508291e-03
      1.8798554844616858e-01 1.6799122011400430e-01
      2.3703923243075633e-03 3.0818055854310026e-02
      -1.6328744543285112e-01 2.7495605764228653e-01
      -2.7346749099260704e-02 3.7438885238547069e-02
      -2.5703320015114561e-01 -1.6583880854276481e-01
      1.2619415230936684e-01 -1.0848739053191890e-02
      -4.1057187089416955e-02 -6.3973502252642040e-04
      -1.2579016257444305e-03 3.6772490071951415e-02
      8.4850023502993269e-02 -5.2624151117787552e-02
      5.7284064740383056e-02 -3.0625923984375701e-03
      6.1715959462031365e-02 -3.2006666567579944e-02
      -3.6827584510990669e-03 -1.8394569123753227e-01
      6.2921764209848572e-03 -9.1585040977179739e-03
      -1.3811948831361871e-02 -2.1376408348774600e-01
      1.1375879621365004e-01 -2.9409016769079444e-01
      -2.5218640473387466e-01 2.0473086657205011e-03
      -3.8496113925152627e-02 3.5654340931125411e-01
      -2.9995500014408488e-01 -3.4650954426401226e-01
      -4.5900166557674116e-01 6.4618884519617073e-02
      2.9242692298837586e-01 -7.5913622376415843e-03
      3.0557900285372148e-02 2.4014929420376464e-02
      -3.3547139470648235e-01 3.6394161409501713e-01
      -3.8612669269686872e-02 -4.4924350709940414e-02
      1.0156971551389772e-01 2.3705361035848721e-02
      -4.0345883696406681e-02 -5.2659932322294205e-02
      8.7274258933600551e-02 -4.3162796310275497e-01
      6.0660488602585244e-02 1.6259150590670797e-02
      3.0655635195016084e-02 1.9130419507217250e-01
      3.0965116367273776e-01 -1.4643409514473957e-01
      1.4858214271945019e-01 -7.1334550577640474e-02
      5.4998311233236265e-02 2.4067689304394230e-01
      7.7260310386850231e-02 -4.5973841074506233e-01
      -2.1851906744114372e-01 -1.6242566499222388e-01
      -4.3403799432089309e-02 -7.0797683169393902e-02
      -1.3365983851539484e-01 1.7137779448142740e-01
      -4.1936103345673201e-02 1.3319032935392341e-01
      5.2348813294450418e-03 -2.5449968982924086e-02
      7.1093389014349542e-02 3.4102747797932223e-02
      9.5762461255798625e-02 1.0898378570043641e-02
      6.3593081754765191e-02 -4.1126910226228393e-02
      -1.6868580986853934e-01 2.2645032545137337e-02
      7.0943940643965371e-03 1.2879903784374583e-01
      8.5175903742741726e-03 2.1894877733777901e-01
      2.2991933572232975e-01 1.4198921241436003e-02
      9.7119520296826106e-02 1.8984869100468818e-01
      4.7102639532729161e-02 3.4883249041277188e-02
      -2.1764820349465325e-02 -1.1422496147277492e-01
      -4.2312602339842041e-02 -4.7899109381989519e-02
      9.5983471331818893e-02 -2.2855135694451283e-02
      2.0417208991315831e-02 -9.6404870989255445e-02
      2.6234240559813572e-03 -1.3719628393280806e-01
      5.1771085567724846e-03 3.7658563136986033e-02
      -3.1905852831151542e-02 2.1834741147652142e-03
      2.3221402335999949e-02 -1.8761834719612406e-02
      3.6355067819755676e-01 -2.8229470805269663e-01
      -3.3095930750540253e-01 1.3418656188157826e-01
      4.8634066027408072e-02 4.4339021727710703e-01
      2.3591596098095918e-01 1.0257506782559059e-01
      -1.6057314645858803e-01 2.7852138656014564e-02
      8.4189017173529161e-03 -1.4335547735614343e-02
      -7.0638674999589646e-02 -1.8010106126299658e-01
      4.8966063705150373e-02 9.4181683971727229e-02
      5.5549649210743929e-02 4.5150364561971751e-01
      -1.6223705340506600e-02 7.9439990335991265e-02
      -2.3494240759869132e-02 -7.3960420836694268e-02
      -1.8160069228004494e-01 1.6362680893281877e-02
      2.6160748690011698e-02 1.2491717322103163e-01
      1.2140077707237241e-01 4.1188052475741671e-01
      -3.7345565525593392e-02 -4.7768664442841648e-02
      1.7023476804870201e-04 -3.2391760103351641e-01
      1.6917591538891810e-01 1.8578458431371991e-01
      -5.1541688571816768e-01 -1.4184648404073102e-01
      -7.8557986439261235e-02 4.2360107382557681e-02
      5.5855021769322180e-02 1.6942501655577936e-03
      5.9404465866873779e-01 -1.1689243358001631e-03
      -1.6618182083070750e-02 9.6990994688038831e-02
      1.9098349023050534e-01 2.4071678463925944e-01
      1.5144691097782262e-01 2.3881023798485859e-01
      -3.8613742399886193e-02 1.9961328921376087e-02
      1.3114913612805740e-01 5.3850366843617554e-02
      1.9772426713506864e-02 3.2113552297066139e-02
      2.1579902675677474e-02 1.0239688751718375e-01
      -9.1524247639883215e-03 4.6001836998584983e-02
      -9.9682869437121902e-02 -8.8336140202113136e-03
      7.1788880620871659e-02 2.8957706466601424e-02
      -4.9603764395626353e-02 2.9142323241605837e-02
      8.8597297772135802e-03 4.7250439140383169e-02
      8.5804057032522085e-02 -2.4785872299962500e-02
      2.5191207920244443e-02 -6.8326435481494058e-02
      3.8717490568156862e-02 -2.3372619363330377e-02
      9.1045302252580392e-03 -1.2691520859335459e-01
      2.2174203919731111e-02 -1.9320716409747609e-02
      -2.5168749719818341e-02 -1.1320777118758275e-01
      4.0483489944320161e-02 1.6353306918263874e-01
      -2.1443102710172093e-01 -2.1075770863103094e-01
      4.1535799317307311e-02 1.3390141644543821e-01
      -1.6377480569926495e-01 -3.4628492061709551e-02
      -2.6264506311544367e-01 -1.0280240886100249e-01
      1.3731640913891954e-01 1.5359925979143327e-02
      2.5629758927774134e-02 1.4084879173462827e-02
      -2.8835924004727626e-01 1.2889014703589272e-01
      1.2208706310875117e-02 -3.1866803673573599e-02
      2.6292636394564972e-01 3.9556787527200252e-02
      -6.2250241579470095e-02 4.6779038069628314e-03
      -1.3935409413789740e-01 -2.3845976242639194e-01
      -2.1442882589083539e-02 -1.5435915426146928e-02
      3.1931976937574669e-01 -2.1135152943401017e-01
      3.1949566837926369e-01 1.4176958501108558e-01
      -2.6486284197488863e-01 -6.3832149751968780e-03
      -5.1398296161235391e-01 6.2571393967870467e-02
      3.2891326903895496e-01 -5.4684363463844188e-01
      -1.5991046351053426e-01 1.3974629043709632e-02
      1.3161874420912054e-01 3.1613493457090269e-01
      1.8674149812423207e-01 8.0601045368028601e-01
      2.4100355812054799e-02 5.2381544185270593e-02
      1.6599718246418305e-01 4.5022848532872883e-01
      3.7154338678031840e-01 2.8462465324488118e-01
      3.5587787846825414e-01 4.2437194515124628e-02
      1.1862049314679669e-03 1.2127905374545227e-01
      3.3201575091502257e-03 -2.7325309152448483e-02
      1.1863556295216546e-02 -2.2998626328260047e-01
      2.6189410694938176e-01 4.2758542675074195e-02
      -1.3466318488531781e-01 -3.0608027973809843e-01
      -1.9480118880889469e-01 -1.7589776935713730e-01
      7.0913263872212171e-03 3.2213895592174552e-02
      -1.6045713948973968e-02 3.5687338422998138e-03
      -6.6483351772306789e-03 1.8005534420210559e-01
      1.1207249436137190e-02 2.0253328389015692e-02
      -1.2968635705435766e-01 8.2214964181039935e-02
      3.0459362234908471e-02 -7.2395320675269700e-02
      -2.5701412588444578e-01 -2.3888361980140931e-02
      2.4947531499819701e-02 3.1440628115400542e-02
      -3.0415315679452010e-01 8.9472836715179138e-02
      -6.5528322513144244e-01 -1.0973435998856791e-01
      8.6119598573263595e-02 -5.8223694579350178e-02
      4.0666703073577837e-01 -4.5167586357025613e-01
      2.4332135216027748e-01 -4.2858070593424064e-01
      -4.1706840473973196e-02 3.6323893523826034e-01
      -1.2831980462404361e-02 -1.8959661912667743e-02
      2.1999639614151724e-03 -3.8869203055489510e-01
      3.7838098033323647e-01 -7.2516438677170350e-02
      9.8127464036374141e-03 2.6900748064541530e-01
      -3.3545945530777610e-02 -1.9026170452536434e-01
      -8.1437435515634204e-02 2.0299351971050411e-01
      1.0791243530333686e-01 7.0826105932135924e-02
      1.1081875860171236e-02 -2.2368112764155695e-01
      -7.7139030106415860e-02 -1.8342162857745956e-01
      -9.4748458877993172e-02 2.2301022798360481e-01
      -1.2921532745418349e-01 3.8141784319686700e-01
      2.6425757152022341e-03 1.0760041474871918e-01
      -2.1916550380591365e-01 3.7273894210166206e-02
      -3.9293570402026474e-02 -1.2924267825354765e-01
      -2.5944291678713660e-01 1.4210626187243089e-01
      -2.7748046549030225e-01 -7.9606502256865816e-02
      2.1272347115030876e-01 -1.4321768617997035e-01
      1.2011888817468205e-01 -2.7455353990196324e-01
      -1.6533201933192307e-01 -2.5656145812635833e-01
      2.9971612107675873e-02 7.2523995107033029e-02
      -3.3734206748708098e-02 -2.8546145148250524e-01
      2.3728028446561387e-02 1.1388058465459127e-02
      2.7005593486523982e-01 -2.3220900435743991e-01
      3.2691833855524532e-01 1.1423707961594422e-01
      2.3706388787318766e-01 1.9699178660737607e-01
      -1.5351624760374530e-01 7.6814009919384668e-02
      4.3886448984071520e-02 -1.3316116641245400e-02
      -1.7060025681922081e-01 -5.1427488612156048e-03
      -1.0141518423688436e-01 7.1647034926383177e-02
      -4.7274868141092941e-02 8.4451863626840706e-02
      -1.7108252524803938e-01 1.7872384373004077e-03
      -2.3308255753008858e-01 1.4692239383718009e-01
      4.1984014277790971e-02 -1.1159276693424961e-02
      1.8908092124023557e-02 1.9892138984045951e-01
      -9.0660850527864850e-02 6.9233100329212993e-01
      -6.0889318049475456e-02 -2.2169952154506190e-01
      1.5710580879162991e-01 -2.7233804372140480e-01
      8.3543657047461761e-01 7.5634613450638377e-01
      2.7702917981879993e-01 5.1330700974544759e-03
      -2.3783824884608459e-01 1.7456332025325608e-02
      -3.8552817287360978e-02 -1.0930301446608301e-01
      2.2727684388377717e-01 -2.8209284605593354e-01
      9.0687090131373133e-02 1.3898284944413770e-02
      -2.5860152197110792e-01 -3.2913076431609310e-02
      8.5168214636822892e-02 -4.1738092255345957e-02
      4.7868732775254379e-02 2.9190841810109586e-01
      4.2587081108232443e-02 2.6738897590913656e-02
      5.9568453420548008e-03 -2.2811363735220880e-01
      3.9866932990164833e-02 7.7356656298303461e-02
      7.9707098460964753e-03 -5.4182221412442312e-02
      -9.1399082945274476e-02 -6.0455681931113343e-02
      1.3993219260550932e-01 -1.9694376705183145e-01
      1.2885235856209643e-01 8.1598235174219422e-02
      1.0435178541894297e-02 -3.7031954632411198e-03
      3.1876079138382563e-01 3.3152380248617802e-01
      -2.4375987738989170e-02 6.3659497488194730e-02
      1.8256891009640130e-02 2.7638624828908387e-01
      5.8881812154723753e-02 6.9178416744395732e-02
      5.9447739950653472e-02 -3.4126424019550669e-02
      1.3962134731393740e-02 1.6213239742013047e-01
      -8.3355484674709671e-02 2.1811705767336226e-02
      3.7848606983392374e-02 6.0764964805454603e-02
      -2.8172208829678427e-02 9.8684989664793318e-02
      -1.3206759206438584e-01 2.6208771084125695e-02
      6.3971944563298286e-02 -3.0325962600801470e-01
      3.2645250345557805e-02 -1.2244293329465824e-02
      4.5928310524114044e-02 -4.8427876037558333e-02
      6.5322643285745760e-02 1.1545362458472798e-01
      -3.0883372487103603e-02 2.1861979831775614e-02
      -5.2412848968831898e-03 3.7058890905263056e-02
      -2.1666377838150560e-02 -8.3011587192743791e-02
      -8.5414421575792737e-02 2.8031918326313871e-02
      -2.2917996062493416e-02 -2.3006594361009377e-02
      -2.3463579565677205e-02 9.9924093735515845e-03
      -9.1139246145352792e-02 1.0776204350918437e-03
      -7.3521120298865636e-02 1.7207000877444936e-02
      -2.2753606171466528e-02 3.7825085413524939e-01
      3.9930850166919918e-01 -1.4900122074507427e-01
      7.1446497288290112e-02 -7.3424586462298618e-03
      2.8208858826087042e-02 3.0697633966083212e-02
      -4.8099276792471682e-02 -8.8124456599002310e-02
      -5.8390491335795151e-02 -2.3330059020503131e-02
      -8.6931629048478745e-02 -1.7716451194434929e-01
      2.7725560193459186e-02 -1.3159383290218502e-01
      3.8012138648784512e-04 -1.6302643707352567e-02
      9.1343251676296353e-02 -3.4614930717094586e-03
      2.2285097483847209e-02 3.8094531320894509e-01
      -1.0673786571519860e-02 1.2280723434470127e-01
      1.6634643591200096e-01 -4.4490287307618948e-02
      4.5630788757792959e-02 -5.7343116553649465e-01
      3.1067563397538418e-02 1.5880276045605192e-02
      -1.6889231163917234e-01 -7.9364217446825550e-02
      1.7513197749320020e-02 2.5122847083799449e-01
      3.7791065869209317e-01 -2.6810259936707055e-02
      5.8539134107211088e-01 -2.0814391601753197e-02
      -4.4501630348262851e-03 2.4548090719941754e-01
      1.7413722982872339e-02 3.2663032449739338e-01
      2.5385945028420537e-01 3.2850713627063954e-01
      -2.6538911299830208e-02 -1.7737603756967448e-02
      1.9589947170491331e-01 2.4436476527802423e-01
      9.8960238569408381e-03 4.1801146268352116e-02
      -3.8785798441353053e-01 3.9481131796068353e-01
      -4.0697861366879980e-02 -9.3922540601286270e-02
      -3.9052925602705429e-01 -3.4337074253399680e-01
      4.5975096714438300e-02 -8.2912120970444567e-03
      -5.3244694929256604e-02 5.5326280887107900e-03
      -4.6670124622068465e-03 3.3981643338447026e-02
      1.4495764779585119e-01 -7.9202959930167252e-02
      7.7876785302774795e-02 2.6936057302043209e-02
      1.8015139038366390e-01 -2.2705132673134110e-02
      -6.6568936132916983e-03 -2.3143510132087103e-01
      7.2572734570173145e-03 -1.3582539361742282e-03
      -2.0014458718868609e-02 -3.2884593594344386e-01
      1.9837412590688655e-01 -3.9942109757782868e-01
      -7.1600559399234223e-02 3.0614566028251033e-01
      -1.7426622656684626e-01 4.9800044455493842e-01
      -4.0136169800221766e-01 -4.3435243720560307e-01
      -3.5036257525627329e-01 1.1038262574941844e-01
      3.9531813024165596e-01 2.2685276228476051e-02
      4.0133839571201417e-02 -5.6408650783978647e-03
      -3.5579464243819148e-01 5.8143700448196012e-01
      -1.5483970178654349e-01 -4.1832862202344188e-02
      -1.0149596062846726e-01 3.7882462688315875e-02
      -1.0775736101349019e-01 -5.5400216926104556e-02
      1.4950756121641745e-01 -1.7742655319709280e-01
      7.6441637759417230e-02 3.7032662021731971e-02
      1.6721073297535025e-01 5.3445685470256236e-02
      -5.2934018996027669e-02 2.3255589007470073e-02
      1.6267535134527439e-01 -9.6894706805644173e-02
      -4.2760907541135748e-02 9.9940439219621244e-02
      3.3348173901672509e-02 -1.4991841576717449e-01
      -5.5366198994019684e-02 -4.8788786205585973e-02
      1.0643749113713369e-01 1.1822140193619698e-01
      -9.3587604119341805e-02 1.8429802699694184e-01
      -6.9220598724030247e-02 1.4691019256068244e-01
      1.0715705836897731e-01 -8.7142971058282906e-02
      1.1347069165510547e-01 1.0840063922690778e-01
      1.4485506543166773e-01 -6.5997749148336720e-04
      2.4904552594029312e-02 3.7914114175511014e-02
      9.4524801081479048e-03 3.9892264168965359e-02
      3.8977868947054485e-03 -1.2432086740347105e-01
      1.4792431393936897e-01 2.3545027320869619e-01
      1.1341249957593227e-01 -1.4714793956711664e-01
      -1.1360415439896898e-01 1.1045008293463364e-01
      5.9325470260892771e-02 2.0054563746861164e-02
      -1.5447810511125792e-02 -1.3667446633374805e-01
      -1.9288024095738671e-02 2.2864930308984694e-02
      3.4203002237887921e-02 3.3682775635768200e-02
      8.3863561831227590e-02 4.8321612477803991e-02
      -1.0432329556196883e-02 -1.7330223506735565e-01
      -6.8419751427431549e-02 3.5890707499871478e-02
      -3.2218137347197293e-02 -2.2777942967115539e-02
      -1.3264977958600593e-01 6.0929972964744984e-02
      -4.8084381569728010e-02 -1.0417523953595681e-01
      2.0984026519769210e-02 -9.6360031750012815e-03
      2.2281673383425618e-01 1.2477327560108059e-01
      -9.6755244059494191e-02 5.3510238394696631e-02
      4.0231550158904061e-02 1.7065865197921695e-01
      3.5285553080887884e-02 1.5661288328946618e-03
      -7.8760536562047248e-02 -1.6102002892750245e-01
      2.8923640254079303e-01 -4.9380662664962049e-02
      2.8327951283725724e-02 2.1553163377445472e-01
      -4.1462683611458188e-03 2.5619083946408199e-02
      6.7595918664343675e-03 -5.7408844258957911e-02
      2.7109830549382996e-01 1.6886247585935988e-04
      3.9529019908618790e-02 3.6972364969276478e-01
      -7.4270273004187412e-02 -1.2197507631722630e-01
      1.7383459159946946e-01 -7.9002486164357011e-02
      2.9991623481502697e-02 -4.0834570592522801e-01
      -3.2995033558618422e-02 1.6930377061942120e-01
      -3.9838190081608542e-02 1.7040839441861166e-01
      6.7751000382372167e-02 2.5340465773621879e-01
      3.6067566338102836e-01 7.8638374069786715e-02
      4.9005934434713394e-01 1.2112941359585853e-02
      -5.1108307829515746e-02 2.6691953497740839e-01
      2.0484465278481925e-01 3.7216980531711319e-01
      3.0879994369936475e-01 3.7335024707868691e-01
      -4.6154983181635127e-02 -4.0570563889070252e-02
      2.2286571922572637e-01 2.4899128946188226e-01
      3.5642923856612760e-02 6.4402975206268795e-02
      -3.5655545005676453e-01 3.5552950587862370e-01
      -8.4796542634737196e-02 -1.3891775080674895e-01
      -3.5267025652442940e-01 -2.9292874344683556e-01
      -7.9260844726621857e-02 -8.2343954209281346e-03
      -9.1271408697342044e-02 4.5001803194091056e-02
      6.2410377187369664e-02 8.0356653641190073e-02
      2.2339296690273475e-01 -1.1625197177404527e-01
      8.3169990929185145e-02 -4.8745916073390301e-02
      2.3741286131387559e-01 -6.5887588723402002e-02
      3.7506585500874996e-02 -2.8737656012723339e-01
      3.4395428866579855e-02 -2.4437294925112801e-02
      -4.9461978037368799e-02 -3.3869600928490534e-01
      2.0126283243288426e-01 -1.3221510140177953e-01
      3.3435692130261686e-02 3.0484982452623743e-01
      -1.8047735787547450e-01 4.4567271076656967e-01
      -4.4305579402271822e-01 -3.5917883569540343e-01
      -3.6854043525191493e-01 1.9615872128878381e-01
      3.8240125915444451e-01 3.2362165247946037e-02
      8.2572950453100480e-02 2.2327908842919415e-02
      -3.9973609838364649e-01 4.9264171513110899e-01
      -1.5845551728333732e-01 -8.9891807908695900e-02
      -2.4250878579414425e-01 6.2291197017510319e-02
      -1.6560854076539089e-01 3.0386278151263778e-03
      7.7154098661158773e-03 -3.2492612754544077e-02
      5.6372655785462810e-03 1.9756002365189766e-02
      4.8196945728218366e-01 -3.4031121159108590e-01
      -2.7111649233746482e-01 3.0985145023849736e-01
      -1.0473865171649044e-01 2.4566025411700703e-02
      -1.5856621663392734e-01 -1.0464109109972923e-01
      5.4617207804931948e-02 1.0316433764167526e-01
      -5.1457748001248027e-02 1.2466899668634844e-01
      2.7123014340696672e-01 5.3627768169119239e-01
      2.8334494582959280e-01 5.6100897043197862e-01
      -2.6181228960987086e-02 -3.7531748636668366e-03
      2.8669286758856866e-01 1.1620713238153541e-01
      6.2070881862726668e-01 4.5776867861164139e-01
      5.9638299322776689e-01 1.7749700247135915e-03
      -2.4449614203800193e-02 1.1415615410769893e-01
      1.1972731556644621e-01 1.8514994870905445e-02
      6.6503055033564185e-02 -4.8067109288023940e-01
      4.7882673673326004e-01 -1.8860658960538661e-02
      -2.5915529605192400e-01 -4.9584043464265681e-01
      -4.0523354719464666e-01 -3.0105363350895914e-01
      7.2170613729144783e-03 1.7124342859272761e-02
      1.0555372612079393e-02 -1.2036849277871542e-03
      2.4263231584303348e-02 3.3344475526607437e-01
      -1.8997581476512850e-02 5.4321578813217128e-02
      3.3921153452457276e-02 2.9913019239969346e-01
      -1.8042692746072476e-03 -2.3679174638684963e-02
      -4.2718743883184451e-01 3.0278150186898969e-02
      -2.7505515141949488e-02 -1.7060860637480451e-02
      -4.9212316046757004e-01 2.3163832983871277e-01
      -7.0062862350559207e-01 1.4944647662393967e-01
      3.4437139102610664e-01 -2.4434375324167729e-01
      5.8075302365399972e-01 -1.4852147527637921e-01
      1.7640503328108503e-01 -8.3843476625806670e-02
      4.5803519139570759e-02 5.0779293381674073e-01
      2.5375157964146335e-02 1.3241494254489970e-02
      -2.3439173636412857e-02 -5.7720976885051778e-01
      5.7549836430250667e-01 -2.1086683074998017e-01
      -2.1556476403994777e-02 1.5730243401810770e-02
      -2.1501276016216045e-03 -3.1024516694770521e-01
      -1.2040747610896323e-01 2.9594029683821266e-01
      -1.0476050699622570e-01 1.0812476896786181e-01
      5.8148824710244157e-02 -1.3625753541287453e-01
      3.0843277720272271e-02 -5.6945059613380047e-02
      -4.0827288857786359e-02 3.8344031837330711e-01
      -1.6026587838580028e-01 2.6106639491349320e-01
      7.5179949286077560e-02 -1.0043697571576048e-01
      -2.9178537166792912e-01 -1.7623418968156263e-01
      -4.0336290158485555e-02 -8.9728676379789277e-02
      -1.2834792371675252e-01 4.0114596678663288e-02
      3.1382656546029029e-02 -1.0836349481392822e-01
      1.9275397092727833e-01 -7.8302230576797111e-02
      -2.2582201649315012e-01 -1.4125179510392755e-01
      -9.2333525420126572e-02 -1.0297534614713483e-01
      -7.7143619272452540e-03 8.1585726680647092e-02
      7.3308089797328196e-02 -1.0009867761231336e-01
      7.5508335466744167e-02 3.7919121555096448e-02
      1.6309975364932774e-01 -1.5384155482211428e-01
      2.9058113277966319e-01 8.0029370588496296e-02
      1.5355074341333483e-01 1.1586764910843064e-01
      -4.5071034109836434e-02 9.4989332180688363e-02
      1.6638255029386925e-02 1.1670672694576740e-02
      -1.9741526543956928e-01 -4.6250450029069242e-03
      -4.2351275619883832e-02 4.4597999243040851e-02
      3.1530065898838690e-03 2.2539430835497604e-01
      -6.8708281309750541e-02 -1.1292048573162100e-02
      -2.2473396389878120e-01 8.7159679861513462e-02
      7.1173205764327938e-02 -6.7703803850512334e-02
      -2.8911587459090018e-02 1.0319552237090086e-01
      -3.3454227043420229e-02 1.3659166827312758e-01
      -8.8251967603561368e-02 -1.4490577638943916e-01
      7.8120369467886475e-02 -1.7051999768960224e-01
      5.6663022877781843e-01 3.7908366071819477e-01
      1.9378871897360977e-01 -8.3613312663607275e-02
      -1.3878198955889648e-01 4.9463706547408802e-02
      -1.5725677289065928e-02 -1.3672178026040352e-01
      1.0100108238881687e-01 -2.0837350112591319e-01
      6.4100780556312534e-02 2.7152739388238690e-02
      -9.1297316779872711e-02 9.4766440084021100e-03
      4.4236504675604943e-02 -8.5344862400039863e-03
      -2.4599398424900089e-02 5.1448301244607142e-01
      -7.1148098810014718e-04 7.1204543948065260e-02
      1.9245645283726939e-01 -2.9104516639102035e-01
      -3.0122230989766241e-01 2.2920201460284576e-01
      -7.9448580860522436e-02 3.4181326727132824e-02
      6.4974570303460696e-02 -1.4498881705267530e-01
      7.7817241657139824e-02 7.4984339194173563e-02
      2.5242271364934876e-01 1.5838406980728079e-01
      1.5074883107156029e-01 2.2324936810774496e-01
      3.9533205720989212e-01 3.9424616147975683e-01
      -1.3636167611246368e-03 -1.0552984754069819e-01
      1.7281953910448372e-01 1.5702384698156330e-01
      3.2466840006574565e-01 2.6869900287494763e-01
      3.1126570206873155e-01 -9.1674791658668611e-02
      -2.4458044587446874e-02 2.7031709435118756e-01
      8.5738075652107046e-02 5.4579258518557335e-02
      8.1017931214208416e-02 -1.6584781649250133e-01
      1.6876582729475320e-01 -1.4195468026058491e-01
      -2.5870299286273513e-01 -1.8131697444532324e-01
      -1.3320112962530647e-01 -3.7483370907927477e-01
      7.3558453141349713e-03 -8.6952709895250585e-02
      9.1008823919893234e-02 7.7200222979688274e-02
      1.2581354011621732e-01 2.9080725416372366e-01
      -1.0162351530925981e-01 7.5236445099037638e-02
      3.0142178693231148e-02 2.8809390976868160e-01
      -8.3136307921695907e-02 7.1175474131056210e-02
      -2.6230248659758815e-01 5.4991737986519421e-02
      -3.8090973772365262e-02 -8.6348594223807307e-02
      -2.3090245412911950e-01 1.5243347960249898e-01
      -3.1987360807698911e-01 1.7555995490037035e-01
      1.7134723547229511e-01 -1.6233758864060488e-01
      1.5250812582960951e-01 2.6172244001481709e-01
      1.5643654994430795e-01 -1.1115240100169771e-01
      3.9384700010698104e-01 1.6165093526472551e-01
      6.7069221428365536e-02 9.2309828570752955e-02
      1.7332508813286018e-02 -3.1162461984887180e-01
      1.2739158979979295e-01 -1.2953245675985708e-01
      -1.5796486175303581e-01 -6.3500294172314986e-01
      8.6989801719953880e-02 -2.5259531227748006e-01
      -3.4486296707868097e-02 1.8524394010535691e-01
      5.6571725191358939e-02 6.1070898523328733e-02
      2.8834621286946662e-02 1.5670082453553466e-01
      4.0051515686618876e-02 9.3918663106591790e-02
      8.0948845191633673e-02 2.0645327350124634e-01
      -3.2573451563024783e-02 -3.2821443570224568e-01
      1.6112028780182027e-02 -2.0427639553039750e-01
      -4.5553259890696814e-02 -6.3655539439729847e-02
      8.9243693668327134e-04 1.3215558555869836e-01
      1.3842118090680203e-01 -9.1153241637004778e-02
      2.0706571212394581e-01 -8.3278069010179423e-02
      6.6334414203783179e-02 8.2719058899998768e-02
      -2.3694099397078006e-01 4.6171953795948392e-02
      5.7320986842720301e-02 4.5847346423406030e-02
      5.5816613157988870e-03 1.9082601229652229e-02
      3.9497501646482878e-02 1.0392418091013089e-01
      1.7571687445123264e-02 1.2462301860848752e-02
      -2.3247788596649008e-01 1.6512948898702332e-01
      5.3348133143362987e-02 1.5919929003617148e-02
      -1.5024708270921422e-01 -2.1581626214225055e-01
      9.4087895680690217e-02 3.0918597825419895e-02
      1.4492696865122503e-02 -1.6016515137234798e-02
      -1.1290170302058775e-01 -2.6291974809359328e-03
      1.3835292791272187e-02 1.9570318905151478e-02
      2.4363790077711146e-02 1.5260378687021395e-01
      6.1219830967189984e-02 -6.2698417225982954e-03
      -7.2233723735995042e-02 -4.9897994603592760e-02
      3.5455147056594145e-02 -1.9610389833108231e-02
      -1.1481856251402883e-02 -1.4420510890907268e-01
      1.1892312831642558e-01 -1.9234167087140197e-01
      -5.1190176043135339e-02 1.6379970202513702e-01
      -8.9759277262900991e-02 2.9086323388254942e-01
      -2.7360008544556669e-01 -2.2419227997024202e-01
      -8.3126071311602268e-02 -8.9166213975299419e-02
      1.8589092747239133e-01 2.8803008841427027e-02
      -7.3410833742597083e-03 -6.8420060239127667e-02
      -4.8678830076139518e-02 3.3414375365752458e-01
      -9.8824809604480909e-02 3.3037021922124557e-02
      3.5994591825530657e-02 -1.7752614254577713e-02
      6.3341928098908104e-04 -1.0752517196696515e-01
      3.3773544937473388e-01 -2.5116832993674226e-01
      1.2900553132813017e-01 4.4626074652442137e-02
      -8.6466019791510695e-02 1.6803881785640520e-01
      1.3509107199350494e-02 -9.8639472471268683e-02
      4.2536715084310367e-01 -1.7695875352232199e-01
      2.2644745156056845e-02 1.0125398830360000e-01
      -2.3530970059058226e-01 -6.8498327866152800e-02
      -9.6843699729017255e-02 -1.0136567376365117e-01
      -4.4385264792012311e-02 -1.3047182727678810e-01
      -2.1209361893093787e-01 -2.3671836246545275e-03
      -1.3718018142773089e-01 2.1840202678879800e-01
      -6.3969492653733556e-02 -3.9901362301814786e-01
      -2.3223511812262240e-01 -1.4950945568867785e-01
      -1.9341147271981324e-01 1.9342158817858713e-02
      8.5121673041619078e-02 -1.0954192720702460e-01
      -2.5899636569624563e-02 3.0913169348381252e-02
      -6.1066369077953176e-03 5.8867745412803270e-02
